{"learner":{"attributes":{"scikit_learn":"{\"_estimator_type\": \"regressor\"}"},"feature_names":["temperature_2m_mean","precipitation_sum","wind_speed_10m_max","wind_direction_10m_dominant"],"feature_types":["float","float","float","float"],"gradient_booster":{"model":{"gbtree_model_param":{"num_parallel_tree":"1","num_trees":"100"},"iteration_indptr":[0,1,2,3,4,5,6,7,8,9,10,11,12,13,14,15,16,17,18,19,20,21,22,23,24,25,26,27,28,29,30,31,32,33,34,35,36,37,38,39,40,41,42,43,44,45,46,47,48,49,50,51,52,53,54,55,56,57,58,59,60,61,62,63,64,65,66,67,68,69,70,71,72,73,74,75,76,77,78,79,80,81,82,83,84,85,86,87,88,89,90,91,92,93,94,95,96,97,98,99,100],"tree_info":[0,0,0,0,0,0,0,0,0,0,0,0,0,0,0,0,0,0,0,0,0,0,0,0,0,0,0,0,0,0,0,0,0,0,0,0,0,0,0,0,0,0,0,0,0,0,0,0,0,0,0,0,0,0,0,0,0,0,0,0,0,0,0,0,0,0,0,0,0,0,0,0,0,0,0,0,0,0,0,0,0,0,0,0,0,0,0,0,0,0,0,0,0,0,0,0,0,0,0,0],"trees":[{"base_weights":[-2.1594994E-6,1.0925732E1,-1.2519608E1,1.5670747E1,-2.3732824E0,-5.236819E0,-2.2370153E1,8.627234E0,2.6658E1,5.351361E0,-1.3606588E1,-1.0911969E1,3.404625E0,-2.0431463E1,-5.1314915E1,1.6194263E1,-1.4677479E0,3.0987534E1,2.7316988E0,-3.8872569E0,1.1861585E1,4.9697474E-2,-2.1037945E1,-4.714983E0,-1.55409775E1,7.879894E0,-4.182535E0,-2.6273964E1,-1.258196E1,-4.8897924E0,-1.6200455E1,2.317762E1,9.082381E0,1.277002E1,-6.542181E0,-9.954631E0,3.24613E1,-1.1485696E1,9.749339E0,-6.797282E0,2.5375868E1,1.4455194E1,-2.0956251E1,-8.927751E0,4.4318924E0,-2.5204433E1,-3.1668909E0,-3.5805252E0,-2.3813395E1,-9.812705E0,-1.7865355E1,1.5462903E1,-6.086483E0,-2.023832E1,-3.6647668E-1,-1.9804209E1,-3.7203197E1,-6.4068313E0,-1.7962435E1,1.1764674E1,5.764678E0,-5.33724E0,3.1019628E0,-1.1609639E0,5.2687654E0,-2.7178793E0,5.0285044E0,1.9224977E-1,-5.5677505E0,1.1330646E1,6.689197E0,-4.9677505E0,-2.4406254E0,5.496434E0,-3.6863892E0,2.5175136E-1,-5.903566E0,1.1036485E1,5.1020813E-1,5.760535E0,-8.3812535E-1,-2.923439E-1,-7.23724E0,-5.353056E0,3.5916464E0,-5.2959127E0,-1.1574968E1,-2.9197226E0,2.1627603E0,1.7395467E0,-1.6100792E0,-1.642344E0,-7.78724E0,-3.4441843E0,6.2102084E0,-3.0773883E0,-6.3922844E0,6.330304E0,2.957805E0,3.5102084E0,-2.163624E0,1.0102081E0,-7.335964E0,6.8725085E-1,-6.2440186E0,-4.211782E0,-7.836676E0,-3.805709E0,-1.2900746E1,1.7578049E0,-7.1852164E0,-5.8599005E0,2.2741045E-1],"categories":[],"categories_nodes":[],"categories_segments":[],"categories_sizes":[],"default_left":[0,0,0,0,0,0,0,0,0,0,0,0,0,0,0,0,0,0,0,0,0,0,0,0,0,0,0,0,0,0,0,0,0,0,0,0,0,0,0,0,0,0,0,0,0,0,0,0,0,0,0,0,0,0,0,0,0,0,0,0,0,0,0,0,0,0,0,0,0,0,0,0,0,0,0,0,0,0,0,0,0,0,0,0,0,0,0,0,0,0,0,0,0,0,0,0,0,0,0,0,0,0,0,0,0,0,0,0,0,0,0,0,0],"id":0,"left_children":[1,3,5,7,9,11,13,15,17,19,21,23,25,27,29,31,33,35,37,39,41,43,45,47,49,51,53,55,57,-1,-1,59,61,63,65,67,69,71,73,75,77,79,81,-1,83,85,87,89,91,93,95,97,99,101,103,105,107,109,111,-1,-1,-1,-1,-1,-1,-1,-1,-1,-1,-1,-1,-1,-1,-1,-1,-1,-1,-1,-1,-1,-1,-1,-1,-1,-1,-1,-1,-1,-1,-1,-1,-1,-1,-1,-1,-1,-1,-1,-1,-1,-1,-1,-1,-1,-1,-1,-1,-1,-1,-1,-1,-1,-1],"loss_changes":[2.4949744E5,6.15005E4,6.0861375E4,5.5335234E4,2.2373547E4,2.4067484E4,1.9209062E4,3.3558547E4,2.8920453E4,9.248365E3,1.0656941E4,8.417754E3,6.6541016E3,1.52620625E4,1.1894141E3,1.2255359E4,1.3738529E4,1.4623516E4,4.5019707E3,5.622498E3,7.963427E3,5.095763E3,4.9834297E3,2.6880276E3,2.074871E3,1.3120696E4,4.4652793E3,1.2980859E4,4.76901E3,0E0,0E0,7.2528438E3,4.4418545E3,4.0553286E3,8.365028E3,8.3241486E2,1.1511375E4,1.2024744E2,5.8923184E3,5.8201797E3,1.5585798E3,6.9310293E3,4.1959082E2,0E0,5.924348E3,4.875457E3,1.0239046E3,2.0751958E3,1.3313599E2,2.833227E3,2.8976367E3,2.3194336E3,9.6531836E2,1.4752793E3,3.3077112E3,4.1497305E3,9.549555E3,1.5204092E4,2.3081426E3,0E0,0E0,0E0,0E0,0E0,0E0,0E0,0E0,0E0,0E0,0E0,0E0,0E0,0E0,0E0,0E0,0E0,0E0,0E0,0E0,0E0,0E0,0E0,0E0,0E0,0E0,0E0,0E0,0E0,0E0,0E0,0E0,0E0,0E0,0E0,0E0,0E0,0E0,0E0,0E0,0E0,0E0,0E0,0E0,0E0,0E0,0E0,0E0,0E0,0E0,0E0,0E0,0E0,0E0],"parents":[2147483647,0,0,1,1,2,2,3,3,4,4,5,5,6,6,7,7,8,8,9,9,10,10,11,11,12,12,13,13,14,14,15,15,16,16,17,17,18,18,19,19,20,20,21,21,22,22,23,23,24,24,25,25,26,26,27,27,28,28,31,31,32,32,33,33,34,34,35,35,36,36,37,37,38,38,39,39,40,40,41,41,42,42,44,44,45,45,46,46,47,47,48,48,49,49,50,50,51,51,52,52,53,53,54,54,55,55,56,56,57,57,58,58],"right_children":[2,4,6,8,10,12,14,16,18,20,22,24,26,28,30,32,34,36,38,40,42,44,46,48,50,52,54,56,58,-1,-1,60,62,64,66,68,70,72,74,76,78,80,82,-1,84,86,88,90,92,94,96,98,100,102,104,106,108,110,112,-1,-1,-1,-1,-1,-1,-1,-1,-1,-1,-1,-1,-1,-1,-1,-1,-1,-1,-1,-1,-1,-1,-1,-1,-1,-1,-1,-1,-1,-1,-1,-1,-1,-1,-1,-1,-1,-1,-1,-1,-1,-1,-1,-1,-1,-1,-1,-1,-1,-1,-1,-1,-1,-1],"split_conditions":[1.8373667E1,1.3E0,1.872346E1,1.70666E2,2.0265795E1,1.4313002E2,3.290014E1,1.2954917E1,2.4798225E1,6.4459366E1,4.8999996E0,1.4869351E1,2.6999998E0,1.6415448E2,2.0652834E1,4.7297462E1,1.5034041E1,-3.7425005E-1,2.9361668E0,1.9813087E1,3.5414624E2,4.621583E0,1.6448668E1,2.9700003E1,1E-1,2.8715332E1,1.6086092E2,2.6544502E1,8.000001E-1,-4.8897924E0,-1.6200455E1,1.2904882E1,3.1320002E0,1.3875751E1,9E-1,-1.5034165E0,1.0894501E1,3.0887228E2,3.4598077E2,6.4000006E0,6.931999E0,1.6267416E1,3.736167E0,-8.927751E0,2.1288757E1,1.3000001E1,1.1900001E1,2.0490332E1,2.2490335E1,1.859845E1,6.522488E1,1.5315873E1,1.1269782E1,1.4508058E2,3.2034808E2,7E-1,1.9721298E1,2.7288252E1,3.1027826E1,1.1764674E1,5.764678E0,-5.33724E0,3.1019628E0,-1.1609639E0,5.2687654E0,-2.7178793E0,5.0285044E0,1.9224977E-1,-5.5677505E0,1.1330646E1,6.689197E0,-4.9677505E0,-2.4406254E0,5.496434E0,-3.6863892E0,2.5175136E-1,-5.903566E0,1.1036485E1,5.1020813E-1,5.760535E0,-8.3812535E-1,-2.923439E-1,-7.23724E0,-5.353056E0,3.5916464E0,-5.2959127E0,-1.1574968E1,-2.9197226E0,2.1627603E0,1.7395467E0,-1.6100792E0,-1.642344E0,-7.78724E0,-3.4441843E0,6.2102084E0,-3.0773883E0,-6.3922844E0,6.330304E0,2.957805E0,3.5102084E0,-2.163624E0,1.0102081E0,-7.335964E0,6.8725085E-1,-6.2440186E0,-4.211782E0,-7.836676E0,-3.805709E0,-1.2900746E1,1.7578049E0,-7.1852164E0,-5.8599005E0,2.2741045E-1],"split_indices":[0,1,2,3,2,3,2,0,2,3,1,2,1,3,0,3,2,0,0,2,3,0,0,1,1,0,3,0,1,0,0,2,0,0,1,0,0,3,3,1,0,0,0,0,2,1,1,0,0,2,3,2,2,3,3,1,2,0,0,0,0,0,0,0,0,0,0,0,0,0,0,0,0,0,0,0,0,0,0,0,0,0,0,0,0,0,0,0,0,0,0,0,0,0,0,0,0,0,0,0,0,0,0,0,0,0,0,0,0,0,0,0,0],"split_type":[0,0,0,0,0,0,0,0,0,0,0,0,0,0,0,0,0,0,0,0,0,0,0,0,0,0,0,0,0,0,0,0,0,0,0,0,0,0,0,0,0,0,0,0,0,0,0,0,0,0,0,0,0,0,0,0,0,0,0,0,0,0,0,0,0,0,0,0,0,0,0,0,0,0,0,0,0,0,0,0,0,0,0,0,0,0,0,0,0,0,0,0,0,0,0,0,0,0,0,0,0,0,0,0,0,0,0,0,0,0,0,0,0],"sum_hessian":[1.822E3,9.73E2,8.49E2,7.17E2,2.56E2,4.89E2,3.6E2,4.38E2,2.79E2,1.52E2,1.04E2,2.95E2,1.94E2,3.39E2,2.1E1,2.5E2,1.88E2,2.36E2,4.3E1,6.3E1,8.9E1,3.7E1,6.7E1,1.27E2,1.68E2,1.22E2,7.2E1,1.93E2,1.46E2,2E0,1.9E1,1.25E2,1.25E2,4.9E1,1.39E2,8E0,2.28E2,1.4E1,2.9E1,5.8E1,5E0,8.3E1,6E0,4E0,3.3E1,5.4E1,1.3E1,1.21E2,6E0,5E1,1.18E2,7.9E1,4.3E1,1.3E1,5.9E1,1.23E2,7E1,6.9E1,7.7E1,2.3E1,1.02E2,5E0,1.2E2,1.1E1,3.8E1,1.26E2,1.3E1,4E0,4E0,1.48E2,8E1,4E0,1E1,2.1E1,8E0,3.7E1,2.1E1,3E0,2E0,6.5E1,1.8E1,1E0,5E0,8E0,2.5E1,3.6E1,1.8E1,8E0,5E0,1.9E1,1.02E2,1E0,5E0,4.8E1,2E0,3.8E1,8E1,3.8E1,4.1E1,2E0,4.1E1,2E0,1.1E1,5.3E1,6E0,6.6E1,5.7E1,1.4E1,5.6E1,4.1E1,2.8E1,7.1E1,6E0],"tree_param":{"num_deleted":"0","num_feature":"4","num_nodes":"113","size_leaf_vector":"1"}},{"base_weights":[-4.0827367E-2,7.651842E0,-8.855673E0,1.1235262E1,-1.590695E0,-4.6494884E0,-1.7633516E1,1.6098171E1,3.20396E0,3.8001232E0,-9.492611E0,-8.54352E0,7.2193563E-1,-2.5123156E1,-1.2093318E1,3.9996545E0,1.859372E1,-6.627263E0,9.65679E0,-3.9352107E0,9.1039095E0,-1.1405312E0,-1.5385767E1,-5.8092985E0,-1.470558E1,1.9509087E0,-1.6836052E1,-1.623793E1,-3.1156288E1,-7.786977E0,-2.168958E1,-1.0856071E1,7.8306704E0,1.2911186E1,2.6817078E1,1.0389992E1,-8.313296E0,1.1115144E1,-5.2788653E0,-1.7006063E1,4.9890107E-1,2.6437885E1,5.35352E0,-6.07628E0,1.2235757E1,-2.1984734E1,-7.8935604E0,-4.5824676E0,-1.6302013E1,8.77837E0,-1.6006592E1,6.6002474E0,-4.0662475E0,-2.1160524E1,-3.0901077E0,5.117385E-1,-2.1099985E1,-3.242867E1,-8.638568E0,-7.179001E-1,-1.6538275E1,-1.6987583E1,-9.6693535E0,-7.299293E0,-2.1579478E0,3.9362133E0,-8.611176E-1,7.8001904E0,2.8806708E0,1.1469961E1,6.1614966E0,9.026011E0,-7.048672E-1,-2.8007302E0,3.7101922E0,1.8304965E0,5.8909483E0,-7.5219803E0,2.137699E0,3.1598573E0,-6.4140334E0,7.114501E0,-1.5121863E0,1.4032726E0,1.1364574E1,9.816426E-2,6.521379E0,-5.948803E0,6.5435484E-2,-8.274153E-1,9.056462E0,-2.5906348E0,-8.398116E0,3.7506914E0,-3.6400862E0,-1.6119143E-1,-1.993451E0,1.7633088E0,-7.2065372E0,5.32695E0,-5.4168425E0,-5.168878E0,-6.401871E-1,3.061182E0,-1.7800146E-1,2.2494457E0,-2.1153224E0,-6.829616E0,-2.6272416E0,4.963074E-2,-2.4168425E0,-3.507575E0,5.9805717E0,-7.6402655E0,-1.2590979E0,-7.105763E-1,-9.860464E0,1.1927686E0,-3.8358474E0,2.5491881E0,-3.5444791E0,-6.3369517E0,-9.7192335E-1,-6.5361423E0,-1.6718625E0],"categories":[],"categories_nodes":[],"categories_segments":[],"categories_sizes":[],"default_left":[0,0,0,0,0,0,0,0,0,0,0,0,0,0,0,0,0,0,0,0,0,0,0,0,0,0,0,0,0,0,0,0,0,0,0,0,0,0,0,0,0,0,0,0,0,0,0,0,0,0,0,0,0,0,0,0,0,0,0,0,0,0,0,0,0,0,0,0,0,0,0,0,0,0,0,0,0,0,0,0,0,0,0,0,0,0,0,0,0,0,0,0,0,0,0,0,0,0,0,0,0,0,0,0,0,0,0,0,0,0,0,0,0,0,0,0,0,0,0,0,0,0,0,0,0],"id":1,"left_children":[1,3,5,7,9,11,13,15,17,19,21,23,25,27,29,31,33,35,37,39,41,43,45,47,49,51,53,55,57,59,61,63,65,67,69,71,73,75,77,79,81,83,85,87,89,91,93,95,97,99,101,103,105,107,109,111,113,115,117,119,121,123,-1,-1,-1,-1,-1,-1,-1,-1,-1,-1,-1,-1,-1,-1,-1,-1,-1,-1,-1,-1,-1,-1,-1,-1,-1,-1,-1,-1,-1,-1,-1,-1,-1,-1,-1,-1,-1,-1,-1,-1,-1,-1,-1,-1,-1,-1,-1,-1,-1,-1,-1,-1,-1,-1,-1,-1,-1,-1,-1,-1,-1,-1,-1],"loss_changes":[1.23684836E5,3.2276648E4,3.1301062E4,2.7365367E4,1.16652705E4,1.2054069E4,1.1107055E4,1.3119727E4,1.6938828E4,6.723155E3,5.445884E3,5.5419473E3,5.276371E3,5.7123516E3,6.4430684E3,4.4103623E3,1.6569852E4,3.1276924E3,3.5654912E3,3.8916445E3,6.164353E3,3.1773818E3,3.0401172E3,2.9246562E3,3.2569102E3,6.4053193E3,8.8571484E2,4.001249E3,1.6681406E3,6.91685E3,1.8812324E3,6.147018E2,3.490813E3,9.105801E3,9.751586E3,2.5799626E3,2.1665518E3,6.1602754E3,3.8617668E3,2.2729546E3,6.678449E3,4.0562383E3,6.6634834E3,3.0341787E3,3.5825432E3,2.4855918E3,2.9190483E3,1.7483794E3,4.250529E3,1.7661565E3,1.608957E3,3.3501816E3,3.5046428E3,3.9495117E1,8.2168465E1,3.0775334E3,2.698459E3,7.677656E2,3.1243448E2,6.5428555E3,2.9801855E3,1.8508623E3,0E0,0E0,0E0,0E0,0E0,0E0,0E0,0E0,0E0,0E0,0E0,0E0,0E0,0E0,0E0,0E0,0E0,0E0,0E0,0E0,0E0,0E0,0E0,0E0,0E0,0E0,0E0,0E0,0E0,0E0,0E0,0E0,0E0,0E0,0E0,0E0,0E0,0E0,0E0,0E0,0E0,0E0,0E0,0E0,0E0,0E0,0E0,0E0,0E0,0E0,0E0,0E0,0E0,0E0,0E0,0E0,0E0,0E0,0E0,0E0,0E0,0E0,0E0],"parents":[2147483647,0,0,1,1,2,2,3,3,4,4,5,5,6,6,7,7,8,8,9,9,10,10,11,11,12,12,13,13,14,14,15,15,16,16,17,17,18,18,19,19,20,20,21,21,22,22,23,23,24,24,25,25,26,26,27,27,28,28,29,29,30,30,31,31,32,32,33,33,34,34,35,35,36,36,37,37,38,38,39,39,40,40,41,41,42,42,43,43,44,44,45,45,46,46,47,47,48,48,49,49,50,50,51,51,52,52,53,53,54,54,55,55,56,56,57,57,58,58,59,59,60,60,61,61],"right_children":[2,4,6,8,10,12,14,16,18,20,22,24,26,28,30,32,34,36,38,40,42,44,46,48,50,52,54,56,58,60,62,64,66,68,70,72,74,76,78,80,82,84,86,88,90,92,94,96,98,100,102,104,106,108,110,112,114,116,118,120,122,124,-1,-1,-1,-1,-1,-1,-1,-1,-1,-1,-1,-1,-1,-1,-1,-1,-1,-1,-1,-1,-1,-1,-1,-1,-1,-1,-1,-1,-1,-1,-1,-1,-1,-1,-1,-1,-1,-1,-1,-1,-1,-1,-1,-1,-1,-1,-1,-1,-1,-1,-1,-1,-1,-1,-1,-1,-1,-1,-1,-1,-1,-1,-1],"split_conditions":[1.8373667E1,1.1E0,1.9969458E1,1.2500751E1,2.0265795E1,1.4136827E2,1.4393129E2,3.2590835E0,6.975937E1,6.4459366E1,5.2999997E0,1.7339897E1,2.1900002E1,2.2992416E1,2.6496098E1,-3.7425005E-1,1.70666E2,1.3276144E1,3.4460284E2,5.809084E0,8.313467E1,3.6999998E0,1.2500751E1,1.47E1,6.395261E0,2.7642418E1,3.69E1,2.1605999E1,2.8715332E1,2.7288252E1,3.1499988E2,2.5672934E2,3.363764E2,1.6532558E1,5.636167E0,3.1589533E1,7E-1,1.744726E2,3.5023087E2,1.3779114E1,6.931999E0,6.602477E1,8.1E0,8.279918E0,2.8962335E2,2.2782625E1,1.2954917E1,6.522488E1,1.2245294E1,5E-1,1.9829433E1,2.1E0,1.3527572E1,2.6938253E1,4.8000004E1,2.1046917E1,7.8026726E1,2.0140705E1,2.8784086E1,1.1E0,1.9474731E2,2.4687091E2,-9.6693535E0,-7.299293E0,-2.1579478E0,3.9362133E0,-8.611176E-1,7.8001904E0,2.8806708E0,1.1469961E1,6.1614966E0,9.026011E0,-7.048672E-1,-2.8007302E0,3.7101922E0,1.8304965E0,5.8909483E0,-7.5219803E0,2.137699E0,3.1598573E0,-6.4140334E0,7.114501E0,-1.5121863E0,1.4032726E0,1.1364574E1,9.816426E-2,6.521379E0,-5.948803E0,6.5435484E-2,-8.274153E-1,9.056462E0,-2.5906348E0,-8.398116E0,3.7506914E0,-3.6400862E0,-1.6119143E-1,-1.993451E0,1.7633088E0,-7.2065372E0,5.32695E0,-5.4168425E0,-5.168878E0,-6.401871E-1,3.061182E0,-1.7800146E-1,2.2494457E0,-2.1153224E0,-6.829616E0,-2.6272416E0,4.963074E-2,-2.4168425E0,-3.507575E0,5.9805717E0,-7.6402655E0,-1.2590979E0,-7.105763E-1,-9.860464E0,1.1927686E0,-3.8358474E0,2.5491881E0,-3.5444791E0,-6.3369517E0,-9.7192335E-1,-6.5361423E0,-1.6718625E0],"split_indices":[0,1,2,0,2,3,3,0,3,3,1,2,1,0,2,0,3,2,3,0,3,1,0,1,3,0,1,2,0,0,3,3,3,3,0,3,1,3,3,2,0,3,1,0,3,2,0,3,2,1,2,1,2,0,1,2,3,2,0,1,3,3,0,0,0,0,0,0,0,0,0,0,0,0,0,0,0,0,0,0,0,0,0,0,0,0,0,0,0,0,0,0,0,0,0,0,0,0,0,0,0,0,0,0,0,0,0,0,0,0,0,0,0,0,0,0,0,0,0,0,0,0,0,0,0],"split_type":[0,0,0,0,0,0,0,0,0,0,0,0,0,0,0,0,0,0,0,0,0,0,0,0,0,0,0,0,0,0,0,0,0,0,0,0,0,0,0,0,0,0,0,0,0,0,0,0,0,0,0,0,0,0,0,0,0,0,0,0,0,0,0,0,0,0,0,0,0,0,0,0,0,0,0,0,0,0,0,0,0,0,0,0,0,0,0,0,0,0,0,0,0,0,0,0,0,0,0,0,0,0,0,0,0,0,0,0,0,0,0,0,0,0,0,0,0,0,0,0,0,0,0,0,0],"sum_hessian":[1.822E3,9.73E2,8.49E2,7.01E2,2.72E2,5.75E2,2.74E2,4.36E2,2.65E2,1.62E2,1.1E2,3.33E2,2.42E2,1.15E2,1.59E2,7.5E1,3.61E2,1.05E2,1.6E2,6.6E1,9.6E1,4.6E1,6.4E1,2.32E2,1.01E2,2.27E2,1.5E1,4.8E1,6.7E1,1.11E2,4.8E1,1.5E1,6E1,2.15E2,1.46E2,9E0,9.6E1,1.46E2,1.4E1,1.6E1,5E1,1.6E1,8E1,3.4E1,1.2E1,3.3E1,3.1E1,2.09E2,2.3E1,5E0,9.6E1,1.28E2,9.9E1,1.1E1,4E0,1.1E1,3.7E1,6.3E1,4E0,6.2E1,4.9E1,3.5E1,1.3E1,2E0,1.3E1,4E1,2E1,4.2E1,1.73E2,5E1,9.6E1,3E0,6E0,9.2E1,4E0,9.3E1,5.3E1,5E0,9E0,2E0,1.4E1,9E0,4.1E1,6E0,1E1,6.2E1,1.8E1,1E1,2.4E1,7E0,5E0,1.1E1,2.2E1,5E0,2.6E1,7.1E1,1.38E2,6E0,1.7E1,4E0,1E0,8.8E1,8E0,8.5E1,4.3E1,2E1,7.9E1,9E0,2E0,3E0,1E0,7E0,4E0,2.9E1,8E0,1E0,6.2E1,1E0,3E0,3.4E1,2.8E1,3.6E1,1.3E1,2.4E1,1.1E1],"tree_param":{"num_deleted":"0","num_feature":"4","num_nodes":"125","size_leaf_vector":"1"}},{"base_weights":[-4.033125E-2,5.7962255E0,-5.9671326E0,1.329722E1,3.0650551E0,-1.0666033E0,-1.0171146E1,9.580809E0,2.0306286E1,-6.131977E-1,7.7485323E0,-3.8794034E0,4.8150277E0,-9.275099E0,-2.8688728E1,2.2391506E1,6.619141E0,2.3464823E1,-2.7880805E0,2.3020678E0,-7.4101048E0,1.0138887E1,-7.8629737E0,-1.4393295E0,-9.297757E0,1.2412245E1,1.1688713E0,-1.3282468E1,-5.5746145E0,-2.2912843E0,-3.0411959E1,2.7923693E1,-1.0854169E1,-8.895719E0,8.969558E0,3.498776E1,1.6871738E1,4.4676285E0,-6.045307E0,5.8994203E0,-1.0991724E1,-3.762211E0,-1.4606886E1,1.2572901E1,3.1530745E0,-3.8787875E0,-2.331487E1,-3.557229E0,5.793514E0,1.3350388E1,-1.0254168E1,1.4651929E1,-1.5192217E0,2.331215E0,-1.3444382E1,-8.581406E0,-1.7702068E1,-2.115447E0,-1.0795049E1,-2.2818546E0,-9.363582E0,1.2438941E1,4.0070415E0,-3.5803225E0,-9.7998166E-1,-4.4884624E0,4.822513E0,7.3867016E0,1.9739226E0,4.486756E0,1.5326908E1,-2.0298457E0,6.494712E0,1.0216107E0,-4.8531175E0,-1.2720959E0,2.2255857E0,-3.4474725E-1,-4.441409E0,-1.8102165E0,4.9760094E0,-5.27198E0,-3.8589078E-1,2.590443E0,5.6885285E0,-3.0250473E0,2.225933E0,-1.6601684E0,7.362696E0,-3.8860538E0,-9.131355E0,-8.749084E-1,-8.010142E0,9.357409E0,7.664732E-1,1.1193085E-2,7.993443E0,1.546318E0,-3.3236156E0,9.753224E0,3.0862322E0,1.6469738E0,-3.8084116E0,2.8077775E-1,9.314846E0,-2.1466618E0,-4.911639E0,-1.6401076E0,-4.529663E0,-5.4610596E0,2.0759714E0,1.0532664E0,-2.1629202E0,-4.451263E0,-8.6044395E-1],"categories":[],"categories_nodes":[],"categories_segments":[],"categories_sizes":[],"default_left":[0,0,0,0,0,0,0,0,0,0,0,0,0,0,0,0,0,0,0,0,0,0,0,0,0,0,0,0,0,0,0,0,0,0,0,0,0,0,0,0,0,0,0,0,0,0,0,0,0,0,0,0,0,0,0,0,0,0,0,0,0,0,0,0,0,0,0,0,0,0,0,0,0,0,0,0,0,0,0,0,0,0,0,0,0,0,0,0,0,0,0,0,0,0,0,0,0,0,0,0,0,0,0,0,0,0,0,0,0,0,0,0,0,0,0],"id":2,"left_children":[1,3,5,7,9,11,13,15,17,19,21,23,25,27,29,31,33,35,37,39,41,43,45,47,49,51,53,55,57,-1,59,61,63,65,67,69,71,-1,73,75,77,79,81,83,85,87,89,91,93,95,97,99,101,103,105,107,109,111,113,-1,-1,-1,-1,-1,-1,-1,-1,-1,-1,-1,-1,-1,-1,-1,-1,-1,-1,-1,-1,-1,-1,-1,-1,-1,-1,-1,-1,-1,-1,-1,-1,-1,-1,-1,-1,-1,-1,-1,-1,-1,-1,-1,-1,-1,-1,-1,-1,-1,-1,-1,-1,-1,-1,-1,-1],"loss_changes":[6.3096004E4,1.8786328E4,1.8633861E4,6.1873516E3,1.1632984E4,6.950554E3,7.8145156E3,5.9982344E3,6.192754E3,7.526863E3,1.1162885E4,3.741433E3,3.7527786E3,6.836371E3,5.657969E2,5.8207275E3,4.9298193E3,5.0315977E3,7.23499E2,1.2785618E4,2.9378975E3,4.3472734E3,2.3720962E3,3.0383406E3,2.0430571E3,1.3951519E3,1.6110046E3,4.4813203E3,4.383403E3,0E0,1.2748047E2,4.5740996E3,1.9969482E0,2.9669346E3,4.1772334E3,7.6222773E3,5.6798193E3,0E0,1.01260767E3,3.266355E3,2.1221655E3,3.6597598E3,1.4789243E3,4.6418125E3,3.9152178E3,1.6881339E3,1.9615283E2,2.1913916E3,3.6217192E3,7.069645E2,1.137041E3,2.6274429E3,6.1800604E2,3.4570552E3,1.1733643E1,2.1502207E3,1.5335234E3,4.2673125E3,3.0657559E3,0E0,0E0,0E0,0E0,0E0,0E0,0E0,0E0,0E0,0E0,0E0,0E0,0E0,0E0,0E0,0E0,0E0,0E0,0E0,0E0,0E0,0E0,0E0,0E0,0E0,0E0,0E0,0E0,0E0,0E0,0E0,0E0,0E0,0E0,0E0,0E0,0E0,0E0,0E0,0E0,0E0,0E0,0E0,0E0,0E0,0E0,0E0,0E0,0E0,0E0,0E0,0E0,0E0,0E0,0E0,0E0],"parents":[2147483647,0,0,1,1,2,2,3,3,4,4,5,5,6,6,7,7,8,8,9,9,10,10,11,11,12,12,13,13,14,14,15,15,16,16,17,17,18,18,19,19,20,20,21,21,22,22,23,23,24,24,25,25,26,26,27,27,28,28,30,30,31,31,32,32,33,33,34,34,35,35,36,36,38,38,39,39,40,40,41,41,42,42,43,43,44,44,45,45,46,46,47,47,48,48,49,49,50,50,51,51,52,52,53,53,54,54,55,55,56,56,57,57,58,58],"right_children":[2,4,6,8,10,12,14,16,18,20,22,24,26,28,30,32,34,36,38,40,42,44,46,48,50,52,54,56,58,-1,60,62,64,66,68,70,72,-1,74,76,78,80,82,84,86,88,90,92,94,96,98,100,102,104,106,108,110,112,114,-1,-1,-1,-1,-1,-1,-1,-1,-1,-1,-1,-1,-1,-1,-1,-1,-1,-1,-1,-1,-1,-1,-1,-1,-1,-1,-1,-1,-1,-1,-1,-1,-1,-1,-1,-1,-1,-1,-1,-1,-1,-1,-1,-1,-1,-1,-1,-1,-1,-1,-1,-1,-1,-1,-1,-1],"split_conditions":[1.7577833E1,1.4869351E1,1.7399586E1,1.70666E2,1.4313002E2,1.597883E2,3.290014E1,2.5843077E1,1.4618837E1,1.4171585E1,2.8038431E1,3.4999998E0,2E-1,1.4393129E2,2.0652834E1,3.4999998E0,3.735965E1,5.5569997E0,6.3825005E-1,5.3999987E0,2.0304129E1,3.4460284E2,3.4598077E2,1.1E0,2.5843077E1,3.2198096E2,2.1900002E1,6E-1,2.7346586E1,-2.2912843E0,1E-1,1.2979984E1,1.5765332E1,9.711167E0,4.4833652E1,3.8695E0,7.854917E0,4.4676285E0,2.8606195E2,5.1299167E0,6.931999E0,1.964228E1,2.851282E1,3.058861E2,1.8374111E1,3.4460284E2,3.5262003E2,1.5792638E2,2.1240334E1,2.2357E1,8.78872E0,1.900492E1,1.4799459E1,1.7400002E1,2.188408E2,2.1605999E1,2.9277838E1,1.1E0,1.9146126E2,-2.2818546E0,-9.363582E0,1.2438941E1,4.0070415E0,-3.5803225E0,-9.7998166E-1,-4.4884624E0,4.822513E0,7.3867016E0,1.9739226E0,4.486756E0,1.5326908E1,-2.0298457E0,6.494712E0,1.0216107E0,-4.8531175E0,-1.2720959E0,2.2255857E0,-3.4474725E-1,-4.441409E0,-1.8102165E0,4.9760094E0,-5.27198E0,-3.8589078E-1,2.590443E0,5.6885285E0,-3.0250473E0,2.225933E0,-1.6601684E0,7.362696E0,-3.8860538E0,-9.131355E0,-8.749084E-1,-8.010142E0,9.357409E0,7.664732E-1,1.1193085E-2,7.993443E0,1.546318E0,-3.3236156E0,9.753224E0,3.0862322E0,1.6469738E0,-3.8084116E0,2.8077775E-1,9.314846E0,-2.1466618E0,-4.911639E0,-1.6401076E0,-4.529663E0,-5.4610596E0,2.0759714E0,1.0532664E0,-2.1629202E0,-4.451263E0,-8.6044395E-1],"split_indices":[0,2,2,3,3,3,2,3,2,0,2,1,1,3,0,1,3,0,0,1,2,3,3,1,3,3,1,1,0,0,1,2,0,0,3,0,0,0,3,0,0,2,2,3,2,3,3,3,0,0,2,0,2,1,3,2,0,1,3,0,0,0,0,0,0,0,0,0,0,0,0,0,0,0,0,0,0,0,0,0,0,0,0,0,0,0,0,0,0,0,0,0,0,0,0,0,0,0,0,0,0,0,0,0,0,0,0,0,0,0,0,0,0,0,0],"split_type":[0,0,0,0,0,0,0,0,0,0,0,0,0,0,0,0,0,0,0,0,0,0,0,0,0,0,0,0,0,0,0,0,0,0,0,0,0,0,0,0,0,0,0,0,0,0,0,0,0,0,0,0,0,0,0,0,0,0,0,0,0,0,0,0,0,0,0,0,0,0,0,0,0,0,0,0,0,0,0,0,0,0,0,0,0,0,0,0,0,0,0,0,0,0,0,0,0,0,0,0,0,0,0,0,0,0,0,0,0,0,0,0,0,0,0],"sum_hessian":[1.822E3,9.18E2,9.04E2,2.44E2,6.74E2,4.18E2,4.86E2,1.61E2,8.3E1,3.78E2,2.96E2,2.83E2,1.35E2,4.65E2,2.1E1,2.9E1,1.32E2,7.3E1,1E1,2.65E2,1.13E2,2.57E2,3.9E1,1.96E2,8.7E1,4.3E1,9.2E1,2.22E2,2.43E2,2E0,1.9E1,2.5E1,4E0,1.7E1,1.15E2,2.5E1,4.8E1,1E0,9E0,2.09E2,5.6E1,7.6E1,3.7E1,1.9E2,6.7E1,3.2E1,7E0,1.52E2,4.4E1,3E0,8.4E1,3.7E1,6E0,8.6E1,6E0,1.09E2,1.13E2,1.47E2,9.6E1,1E0,1.8E1,1.2E1,1.3E1,3E0,1E0,1.4E1,3E0,1.4E1,1.01E2,1.2E1,1.3E1,8E0,4E1,5E0,4E0,2.7E1,1.82E2,1.6E1,4E1,6.9E1,7E0,3E1,7E0,1.19E2,7.1E1,1.6E1,5.1E1,3.1E1,1E0,4E0,3E0,1.49E2,3E0,4E0,4E1,2E0,1E0,4E0,8E1,6E0,3.1E1,4E0,2E0,8.3E1,3E0,3E0,3E0,7.5E1,3.4E1,1.11E2,2E0,7E1,7.7E1,6.3E1,3.3E1],"tree_param":{"num_deleted":"0","num_feature":"4","num_nodes":"115","size_leaf_vector":"1"}},{"base_weights":[-1.1170513E-2,5.860062E0,-3.0865686E0,1.8389042E1,4.2270646E0,1.3286444E0,-5.47488E0,1.4435435E1,3.2450386E1,6.996588E0,-1.842565E0,5.153875E0,-1.0838699E0,-8.414222E0,-2.3177254E0,1.1482246E1,3.4311207E1,1.1249928E1,1.4851682E1,1.4175022E1,6.5532885E0,-4.6277225E-1,-2.2371948E1,-4.137592E0,8.310331E0,4.565534E0,-3.039446E0,-5.8763857E0,-1.2683995E1,1.2517961E0,-5.781669E0,1.5909372E1,-4.986206E-1,1.1798002E1,6.327622E-1,-3.6616883E0,7.400225E0,5.640644E0,2.18431E1,2.0889416E0,-1.3582233E1,-5.9710693E-1,-7.2633224E0,-8.957923E-1,-2.794775E1,3.456794E0,2.1852882E1,1.8448984E1,8.8157386E-1,-1.2115833E1,-1.2278175E0,-4.1842866E0,-1.4082168E1,-8.874912E0,-1.6528042E1,3.518009E0,-1.0649777E1,-4.8675394E0,-1.7923788E1,1.2036748E1,3.564209E0,2.3132656E0,-4.2294083E0,1.9915614E0,-2.218619E0,8.810406E0,-2.433072E0,-4.379851E0,1.3135475E0,-2.7572744E0,-6.038516E0,2.0081813E0,-2.0159597E0,-9.431351E0,-2.098113E0,-1.473953E0,2.3589497E0,7.879633E0,1.5996066E0,-8.835907E-1,6.678043E0,-6.0088162E0,1.0272325E0,-4.309175E0,2.163519E0,3.6992047E-2,-2.8196008E0,-8.3416283E-1,-4.235853E0,-4.792702E0,1.0510818E0,-7.248893E0,-2.2432935E0,-7.870924E0,-4.4788585E0,1.977085E0,-1.6899446E0,-1.1368225E0,-5.7988615E0,-3.3510454E0,-9.4399405E-1,-1.0202603E0,-6.5821733E0],"categories":[],"categories_nodes":[],"categories_segments":[],"categories_sizes":[],"default_left":[0,0,0,0,0,0,0,0,0,0,0,0,0,0,0,0,0,0,0,0,0,0,0,0,0,0,0,0,0,0,0,0,0,0,0,0,0,0,0,0,0,0,0,0,0,0,0,0,0,0,0,0,0,0,0,0,0,0,0,0,0,0,0,0,0,0,0,0,0,0,0,0,0,0,0,0,0,0,0,0,0,0,0,0,0,0,0,0,0,0,0,0,0,0,0,0,0,0,0,0,0,0,0],"id":3,"left_children":[1,3,5,7,9,11,13,15,17,19,21,23,25,27,29,31,33,-1,35,-1,37,39,41,43,45,47,49,51,53,55,57,59,61,-1,-1,-1,-1,63,65,67,69,-1,-1,71,73,75,77,79,81,83,85,87,89,91,93,95,97,99,101,-1,-1,-1,-1,-1,-1,-1,-1,-1,-1,-1,-1,-1,-1,-1,-1,-1,-1,-1,-1,-1,-1,-1,-1,-1,-1,-1,-1,-1,-1,-1,-1,-1,-1,-1,-1,-1,-1,-1,-1,-1,-1,-1,-1],"loss_changes":[3.2934867E4,1.2750561E4,1.2629525E4,3.5342617E3,9.359241E3,3.890753E3,7.1910254E3,3.0104512E3,7.7600195E2,6.5068984E3,4.946748E3,4.814867E3,2.875267E3,4.2815293E3,4.6563354E3,2.7660542E3,1.0476084E3,0E0,1.629018E3,0E0,5.165417E3,5.552096E3,3.6413818E2,3.2168508E3,7.9434307E3,3.410523E3,3.1586309E3,3.4678652E3,2.0350195E3,5.054165E3,2.0327539E3,3.2300947E3,1.7833741E3,0E0,0E0,0E0,0E0,4.719175E3,4.971506E3,5.374978E3,5.911504E2,0E0,0E0,1.7247017E3,1.4578955E2,3.394822E3,2.1927295E3,1.2070806E3,2.9395918E3,1.4939873E3,1.7896125E3,2.9174E3,1.4878184E3,1.4641553E3,7.4118555E2,4.451157E3,1.7131438E3,1.9063066E3,6.837446E2,0E0,0E0,0E0,0E0,0E0,0E0,0E0,0E0,0E0,0E0,0E0,0E0,0E0,0E0,0E0,0E0,0E0,0E0,0E0,0E0,0E0,0E0,0E0,0E0,0E0,0E0,0E0,0E0,0E0,0E0,0E0,0E0,0E0,0E0,0E0,0E0,0E0,0E0,0E0,0E0,0E0,0E0,0E0,0E0],"parents":[2147483647,0,0,1,1,2,2,3,3,4,4,5,5,6,6,7,7,8,8,9,9,10,10,11,11,12,12,13,13,14,14,15,15,16,16,18,18,20,20,21,21,22,22,23,23,24,24,25,25,26,26,27,27,28,28,29,29,30,30,31,31,32,32,37,37,38,38,39,39,40,40,43,43,44,44,45,45,46,46,47,47,48,48,49,49,50,50,51,51,52,52,53,53,54,54,55,55,56,56,57,57,58,58],"right_children":[2,4,6,8,10,12,14,16,18,20,22,24,26,28,30,32,34,-1,36,-1,38,40,42,44,46,48,50,52,54,56,58,60,62,-1,-1,-1,-1,64,66,68,70,-1,-1,72,74,76,78,80,82,84,86,88,90,92,94,96,98,100,102,-1,-1,-1,-1,-1,-1,-1,-1,-1,-1,-1,-1,-1,-1,-1,-1,-1,-1,-1,-1,-1,-1,-1,-1,-1,-1,-1,-1,-1,-1,-1,-1,-1,-1,-1,-1,-1,-1,-1,-1,-1,-1,-1,-1],"split_conditions":[1.2954917E1,1.257426E1,1.61198E1,2.718228E2,8.000001E-1,2.0167418E1,1.4393129E2,1.2245294E1,5E-1,1.2517053E0,3.5414624E2,1.2620554E1,1.1841756E1,1.1000001E0,2.4290335E1,1.4899062E2,1.0894501E1,1.1249928E1,7.854917E0,1.4175022E1,3.5333618E2,1.27E1,3.736167E0,3.2034808E2,1.5573412E2,7.32588E1,2.2357E1,2.6434082E1,2.0140705E1,3.4309842E2,3.2576114E2,9.511088E0,9.034084E0,1.1798002E1,6.327622E-1,-3.6616883E0,7.400225E0,3.4598077E2,2.4798225E1,1.4003299E1,2.1659918E1,-5.9710693E-1,-7.2633224E0,1.1440979E1,1.717575E1,4.4833652E1,3.4309842E2,9.511088E0,2.1369501E1,1.7004527E2,1.4300001E1,2.436591E1,2.9419497E1,1.4E0,2.1046917E1,2.5630886E1,2.0929594E1,1.6086092E2,2.0304129E1,1.2036748E1,3.564209E0,2.3132656E0,-4.2294083E0,1.9915614E0,-2.218619E0,8.810406E0,-2.433072E0,-4.379851E0,1.3135475E0,-2.7572744E0,-6.038516E0,2.0081813E0,-2.0159597E0,-9.431351E0,-2.098113E0,-1.473953E0,2.3589497E0,7.879633E0,1.5996066E0,-8.835907E-1,6.678043E0,-6.0088162E0,1.0272325E0,-4.309175E0,2.163519E0,3.6992047E-2,-2.8196008E0,-8.3416283E-1,-4.235853E0,-4.792702E0,1.0510818E0,-7.248893E0,-2.2432935E0,-7.870924E0,-4.4788585E0,1.977085E0,-1.6899446E0,-1.1368225E0,-5.7988615E0,-3.3510454E0,-9.4399405E-1,-1.0202603E0,-6.5821733E0],"split_indices":[0,2,2,3,1,0,3,2,1,3,3,2,2,1,0,3,0,0,0,0,3,1,0,3,3,3,0,0,2,3,3,2,0,0,0,0,0,3,2,3,2,0,0,2,0,3,3,2,0,3,1,2,0,1,2,2,2,3,2,0,0,0,0,0,0,0,0,0,0,0,0,0,0,0,0,0,0,0,0,0,0,0,0,0,0,0,0,0,0,0,0,0,0,0,0,0,0,0,0,0,0,0,0],"split_type":[0,0,0,0,0,0,0,0,0,0,0,0,0,0,0,0,0,0,0,0,0,0,0,0,0,0,0,0,0,0,0,0,0,0,0,0,0,0,0,0,0,0,0,0,0,0,0,0,0,0,0,0,0,0,0,0,0,0,0,0,0,0,0,0,0,0,0,0,0,0,0,0,0,0,0,0,0,0,0,0,0,0,0,0,0,0,0,0,0,0,0,0,0,0,0,0,0,0,0,0,0,0,0],"sum_hessian":[1.822E3,6.26E2,1.196E3,7.1E1,5.55E2,4.2E2,7.76E2,5.7E1,1.4E1,3.81E2,1.74E2,1.62E2,2.58E2,4.01E2,3.75E2,5.1E1,6E0,1E1,4E0,3E0,3.78E2,1.64E2,1E1,4.1E1,1.21E2,6.6E1,1.92E2,2.53E2,1.48E2,1.85E2,1.9E2,3.7E1,1.4E1,5E0,1E0,1E0,3E0,3.58E2,2E1,1.38E2,2.6E1,1E0,9E0,3.7E1,4E0,9E1,3.1E1,1.3E1,5.3E1,3.1E1,1.61E2,2.11E2,4.2E1,7.6E1,7.2E1,1.56E2,2.9E1,1.78E2,1.2E1,4E0,3.3E1,9E0,5E0,3.33E2,2.5E1,1.6E1,4E0,1.6E1,1.22E2,1.7E1,9E0,1.6E1,2.1E1,3E0,1E0,3.1E1,5.9E1,2.4E1,7E0,2E0,1.1E1,5E0,4.8E1,2.8E1,3E0,1.39E2,2.2E1,1.86E2,2.5E1,3.8E1,4E0,5E0,7.1E1,8E0,6.4E1,1.17E2,3.9E1,1.7E1,1.2E1,3.7E1,1.41E2,3E0,9E0],"tree_param":{"num_deleted":"0","num_feature":"4","num_nodes":"103","size_leaf_vector":"1"}},{"base_weights":[-1.48306E-2,4.1685615E0,-2.2061188E0,5.549042E0,-4.821321E0,-8.937919E-1,-6.402429E0,5.014275E0,3.1005096E1,-9.823205E0,9.721408E0,-1.1439714E0,1.651433E1,-8.919481E0,-1.868225E0,1.3443219E1,3.6926808E0,1.2467316E1,2.1485806E0,-1.3067773E1,3.661114E0,1.614604E1,-1.0101951E1,-2.855572E0,1.2754645E0,5.3859873E0,8.57992E0,-5.596691E0,-1.6355154E1,7.036056E-1,-1.5896529E1,-6.3376826E-1,1.5723924E1,1.2287327E0,7.2582526E0,-3.7260509E0,6.8782244E0,-2.4212042E1,-8.196643E0,3.1195908E1,-1.2042784E1,2.5217632E1,2.788292E0,2.6745987E-1,-3.7436862E0,-2.041703E0,-8.331132E0,-2.297443E1,1.7332739E0,1.3118615E1,-3.5623796E0,-9.648455E0,-2.1498707E-1,-1.0271019E1,-1.8966824E1,8.034699E0,-6.1646695E0,-6.778051E0,-1.1781413E1,-2.747033E0,2.3984604E0,8.831446E0,2.5477293E0,-4.600499E0,7.3455226E-1,2.571797E0,-5.1380477E0,-1.5553975E0,-7.560243E0,-2.9412727E0,2.8103095E-2,1.0702927E0,1.116332E1,-4.6447377E0,2.3211915E0,2.4328659E0,1.0581429E1,-1.0692116E0,4.3690567E0,-5.1156676E-1,-4.3468738E0,4.740529E0,-2.7905557E0,-1.1364682E0,-7.6622276E0,2.4210706E0,-1.598912E-1,5.6459537E0,3.432312E-1,-2.441984E0,-5.841356E0,3.5538018E0,-1.0279423E0,-3.4723313E0,1.9785782E0,-2.3896914E0,-5.80702E0,2.7423556E0,-5.7656503E0,9.3374157E-1,-2.6484332E0,8.069882E-1,-5.071227E0],"categories":[],"categories_nodes":[],"categories_segments":[],"categories_sizes":[],"default_left":[0,0,0,0,0,0,0,0,0,0,0,0,0,0,0,0,0,0,0,0,0,0,0,0,0,0,0,0,0,0,0,0,0,0,0,0,0,0,0,0,0,0,0,0,0,0,0,0,0,0,0,0,0,0,0,0,0,0,0,0,0,0,0,0,0,0,0,0,0,0,0,0,0,0,0,0,0,0,0,0,0,0,0,0,0,0,0,0,0,0,0,0,0,0,0,0,0,0,0,0,0,0,0],"id":4,"left_children":[1,3,5,7,9,11,13,15,17,19,21,23,25,27,29,31,33,-1,35,37,39,41,43,45,47,49,-1,51,53,55,57,59,61,63,65,-1,-1,67,69,71,73,75,77,-1,-1,79,81,83,85,87,-1,89,91,93,95,97,99,-1,101,-1,-1,-1,-1,-1,-1,-1,-1,-1,-1,-1,-1,-1,-1,-1,-1,-1,-1,-1,-1,-1,-1,-1,-1,-1,-1,-1,-1,-1,-1,-1,-1,-1,-1,-1,-1,-1,-1,-1,-1,-1,-1,-1,-1],"loss_changes":[1.672067E4,7.80805E3,6.5860737E3,7.250037E3,6.205743E3,3.9951494E3,3.2359922E3,5.8989287E3,3.2603408E3,2.8041426E3,2.9649778E3,3.7347803E3,1.5943386E3,4.42988E3,3.7272625E3,2.3215576E3,4.0587144E3,0E0,1.4956488E3,2.570086E3,5.996932E3,1.9896787E3,1.6791467E2,2.3359639E3,4.191904E3,1.2235358E3,0E0,2.7890159E3,6.950176E2,4.4805044E3,1.7475732E2,8.821685E2,5.8988047E3,5.593654E3,6.204617E3,0E0,0E0,1.5154785E2,4.9403687E2,6.9818555E2,7.321261E2,1.4339761E3,6.5030615E2,0E0,0E0,1.9061754E3,1.7399736E3,2.479126E2,5.2891875E3,3.8808472E2,0E0,9.231953E2,2.2096782E3,4.940293E2,8.811523E0,1.4723748E3,1.1640966E3,0E0,9.3505725E2,0E0,0E0,0E0,0E0,0E0,0E0,0E0,0E0,0E0,0E0,0E0,0E0,0E0,0E0,0E0,0E0,0E0,0E0,0E0,0E0,0E0,0E0,0E0,0E0,0E0,0E0,0E0,0E0,0E0,0E0,0E0,0E0,0E0,0E0,0E0,0E0,0E0,0E0,0E0,0E0,0E0,0E0,0E0,0E0],"parents":[2147483647,0,0,1,1,2,2,3,3,4,4,5,5,6,6,7,7,8,8,9,9,10,10,11,11,12,12,13,13,14,14,15,15,16,16,18,18,19,19,20,20,21,21,22,22,23,23,24,24,25,25,27,27,28,28,29,29,30,30,31,31,32,32,33,33,34,34,37,37,38,38,39,39,40,40,41,41,42,42,45,45,46,46,47,47,48,48,49,49,51,51,52,52,53,53,54,54,55,55,56,56,58,58],"right_children":[2,4,6,8,10,12,14,16,18,20,22,24,26,28,30,32,34,-1,36,38,40,42,44,46,48,50,-1,52,54,56,58,60,62,64,66,-1,-1,68,70,72,74,76,78,-1,-1,80,82,84,86,88,-1,90,92,94,96,98,100,-1,102,-1,-1,-1,-1,-1,-1,-1,-1,-1,-1,-1,-1,-1,-1,-1,-1,-1,-1,-1,-1,-1,-1,-1,-1,-1,-1,-1,-1,-1,-1,-1,-1,-1,-1,-1,-1,-1,-1,-1,-1,-1,-1,-1,-1],"split_conditions":[1.2954917E1,2.4798225E1,2.1605999E1,2.4248613E1,1.0402832E1,2.1288757E1,1.73371E2,1.257426E1,1E-1,3.4092404E2,3.1344952E2,1.4136827E2,5.2691578E1,2.5857E1,3.3829626E2,3.2590835E0,1.5335513E2,1.2467316E1,2.4535524E1,2.6674032E1,3.4598077E2,1.5000001E0,2.6282465E1,2.6938253E1,1.3354917E1,2.2640335E1,8.57992E0,7.142488E1,1.0370071E2,2.4798225E1,3.474712E2,1.0829959E1,6.6174164E0,4.1528325E0,2.3933907E1,-3.7260509E0,6.8782244E0,2.5174165E0,3.3497414E1,2.5174165E0,3.5877548E2,1.1711167E1,3.0911821E1,2.6745987E-1,-3.7436862E0,2.8100002E1,8.78872E0,1.4586633E2,1.900492E1,3.5134262E1,-3.5623796E0,3.175355E1,1.26141136E2,2.9277838E1,2.1710716E1,2.7E1,1.8217419E1,-6.778051E0,3.5262003E2,-2.747033E0,2.3984604E0,8.831446E0,2.5477293E0,-4.600499E0,7.3455226E-1,2.571797E0,-5.1380477E0,-1.5553975E0,-7.560243E0,-2.9412727E0,2.8103095E-2,1.0702927E0,1.116332E1,-4.6447377E0,2.3211915E0,2.4328659E0,1.0581429E1,-1.0692116E0,4.3690567E0,-5.1156676E-1,-4.3468738E0,4.740529E0,-2.7905557E0,-1.1364682E0,-7.6622276E0,2.4210706E0,-1.598912E-1,5.6459537E0,3.432312E-1,-2.441984E0,-5.841356E0,3.5538018E0,-1.0279423E0,-3.4723313E0,1.9785782E0,-2.3896914E0,-5.80702E0,2.7423556E0,-5.7656503E0,9.3374157E-1,-2.6484332E0,8.069882E-1,-5.071227E0],"split_indices":[0,2,2,2,0,2,3,2,1,3,3,3,3,0,3,0,3,0,2,2,3,1,2,0,0,0,0,3,3,2,3,2,0,0,2,0,0,0,2,0,3,0,2,0,0,1,2,3,0,3,0,2,3,0,2,1,0,0,3,0,0,0,0,0,0,0,0,0,0,0,0,0,0,0,0,0,0,0,0,0,0,0,0,0,0,0,0,0,0,0,0,0,0,0,0,0,0,0,0,0,0,0,0],"split_type":[0,0,0,0,0,0,0,0,0,0,0,0,0,0,0,0,0,0,0,0,0,0,0,0,0,0,0,0,0,0,0,0,0,0,0,0,0,0,0,0,0,0,0,0,0,0,0,0,0,0,0,0,0,0,0,0,0,0,0,0,0,0,0,0,0,0,0,0,0,0,0,0,0,0,0,0,0,0,0,0,0,0,0,0,0,0,0,0,0,0,0,0,0,0,0,0,0,0,0,0,0,0,0],"sum_hessian":[1.822E3,6.26E2,1.196E3,5.43E2,8.3E1,9.12E2,2.84E2,5.33E2,1E1,6.2E1,2.1E1,9E2,1.2E1,1.82E2,1.02E2,7.1E1,4.62E2,7E0,3E0,5E1,1.2E1,1.6E1,5E0,5.27E2,3.73E2,7E0,5E0,1.27E2,5.5E1,8.7E1,1.5E1,1E1,6.1E1,2.74E2,1.88E2,2E0,1E0,1.4E1,3.6E1,4E0,8E0,9E0,7E0,1E0,4E0,4.6E2,6.7E1,6E0,3.67E2,5E0,2E0,7.2E1,5.5E1,1.8E1,3.7E1,4.2E1,4.5E1,4E0,1.1E1,5E0,5E0,2E1,4.1E1,1.8E1,2.56E2,1.79E2,9E0,1E0,1.3E1,3E1,6E0,1E0,3E0,7E0,1E0,4E0,5E0,5E0,2E0,4.49E2,1.1E1,2E0,6.5E1,1E0,5E0,9.6E1,2.71E2,3E0,2E0,6.4E1,8E0,1.1E1,4.4E1,1.7E1,1E0,2E0,3.5E1,4.1E1,1E0,1E1,3.5E1,3E0,8E0],"tree_param":{"num_deleted":"0","num_feature":"4","num_nodes":"103","size_leaf_vector":"1"}},{"base_weights":[-9.685768E-3,2.951717E0,-1.6808635E0,1.2764415E0,6.894068E0,8.2123196E-1,-3.5803738E0,6.6943634E-1,1.2351684E1,1.0113178E1,-1.3343003E0,-6.9554105E0,1.5802052E0,-5.685513E0,-1.7155614E0,2.16861E0,-3.083811E0,1.8496946E1,3.4075594E0,1.1802161E1,-6.0513177E0,2.2168217E0,-1.6063147E1,1.1482965E0,-1.8105131E1,-1.1532897E0,3.6321132E0,3.8324416E0,-6.7909145E0,1.8753828E0,-3.4585612E0,5.100844E0,-8.77287E-2,-7.2584324E0,2.097019E0,6.1621466E0,-1.2103627E0,1.2036315E1,-5.789122E0,2.0945347E1,9.490797E0,2.1151874E0,-1.2440595E1,-2.8846626E0,2.0870632E1,-5.610294E0,1.5472767E0,8.331182E0,-1.6952454E1,-7.2913003E0,-6.543186E0,1.1576751E0,-9.764437E0,2.0714005E1,1.7507632E0,1.690535E1,3.0122685E-1,-1.1869383E1,-5.129939E0,2.9487927E0,-1.2984251E1,-1.733863E0,-6.7185497E0,1.1596091E0,7.361939E0,-5.299473E-1,3.2483644E0,-3.6407793E0,1.674618E-2,3.2236903E0,-1.3555526E0,1.1022484E0,4.5896554E0,-2.9785814E0,-3.711691E-1,7.6107483E0,-2.5865903E0,2.2732968E0,6.1010785E0,2.5279765E0,-1.417503E0,-4.487009E0,7.7581674E-1,-2.5339792E0,2.6043192E-1,3.8257594E0,1.0668608E1,5.182743E0,-1.3562031E0,-1.3740029E0,-7.0379753E0,6.564797E-1,-6.5475087E0,2.6077406E0,-4.2189085E-1,-3.1905167E0,3.8896375E0,-3.0432838E-1,7.413222E0,1.0883147E0,-1.9139675E0,9.351291E0,1.4894729E0,-4.794148E-1,4.8084364E0,-2.9511337E0,-6.4517884E0,2.873097E0,-1.8654575E0,2.2171583E0,-3.6989236E-1,1.9223894E0,-6.1548953E0,1.7179838E0,-9.369515E-1,-2.9652343E0,-7.804203E-1],"categories":[],"categories_nodes":[],"categories_segments":[],"categories_sizes":[],"default_left":[0,0,0,0,0,0,0,0,0,0,0,0,0,0,0,0,0,0,0,0,0,0,0,0,0,0,0,0,0,0,0,0,0,0,0,0,0,0,0,0,0,0,0,0,0,0,0,0,0,0,0,0,0,0,0,0,0,0,0,0,0,0,0,0,0,0,0,0,0,0,0,0,0,0,0,0,0,0,0,0,0,0,0,0,0,0,0,0,0,0,0,0,0,0,0,0,0,0,0,0,0,0,0,0,0,0,0,0,0,0,0,0,0,0,0,0,0],"id":5,"left_children":[1,3,5,7,9,11,13,15,17,19,21,23,25,27,29,31,33,35,37,39,41,43,45,47,49,51,53,55,57,59,61,63,65,67,69,-1,-1,71,73,75,77,79,81,83,85,-1,-1,87,89,-1,91,93,95,97,99,101,103,105,107,109,111,113,115,-1,-1,-1,-1,-1,-1,-1,-1,-1,-1,-1,-1,-1,-1,-1,-1,-1,-1,-1,-1,-1,-1,-1,-1,-1,-1,-1,-1,-1,-1,-1,-1,-1,-1,-1,-1,-1,-1,-1,-1,-1,-1,-1,-1,-1,-1,-1,-1,-1,-1,-1,-1,-1,-1],"loss_changes":[9.027044E3,4.3369775E3,5.544654E3,3.1043547E3,5.2051465E3,2.9857314E3,2.5929785E3,2.482466E3,1.256106E3,3.9209375E3,2.9646296E3,4.0867227E3,2.5842734E3,3.2981074E3,2.2159185E3,2.0845232E3,2.7403496E3,7.274883E2,9.425947E2,2.5062637E3,7.568071E2,4.437662E3,7.1219604E2,3.651655E3,1.202794E3,3.9515159E3,8.41577E3,1.5182949E3,2.2925342E3,1.8885435E3,1.3265051E3,3.195398E3,3.2992507E3,2.497945E3,3.3098179E3,0E0,0E0,1.0748053E2,1.00770874E2,3.4887402E3,2.0039141E3,3.4201428E2,3.4114734E2,7.796208E2,7.3915625E2,0E0,0E0,2.3772002E3,5.366592E2,0E0,1.1152202E3,3.045314E3,9.690283E2,2.2829795E3,3.6552263E3,1.0376034E3,8.32096E2,1.120165E3,3.45258E3,2.0337112E3,1.2999752E3,1.6451748E3,1.043002E3,0E0,0E0,0E0,0E0,0E0,0E0,0E0,0E0,0E0,0E0,0E0,0E0,0E0,0E0,0E0,0E0,0E0,0E0,0E0,0E0,0E0,0E0,0E0,0E0,0E0,0E0,0E0,0E0,0E0,0E0,0E0,0E0,0E0,0E0,0E0,0E0,0E0,0E0,0E0,0E0,0E0,0E0,0E0,0E0,0E0,0E0,0E0,0E0,0E0,0E0,0E0,0E0,0E0,0E0],"parents":[2147483647,0,0,1,1,2,2,3,3,4,4,5,5,6,6,7,7,8,8,9,9,10,10,11,11,12,12,13,13,14,14,15,15,16,16,17,17,18,18,19,19,20,20,21,21,22,22,23,23,24,24,25,25,26,26,27,27,28,28,29,29,30,30,31,31,32,32,33,33,34,34,37,37,38,38,39,39,40,40,41,41,42,42,43,43,44,44,47,47,48,48,50,50,51,51,52,52,53,53,54,54,55,55,56,56,57,57,58,58,59,59,60,60,61,61,62,62],"right_children":[2,4,6,8,10,12,14,16,18,20,22,24,26,28,30,32,34,36,38,40,42,44,46,48,50,52,54,56,58,60,62,64,66,68,70,-1,-1,72,74,76,78,80,82,84,86,-1,-1,88,90,-1,92,94,96,98,100,102,104,106,108,110,112,114,116,-1,-1,-1,-1,-1,-1,-1,-1,-1,-1,-1,-1,-1,-1,-1,-1,-1,-1,-1,-1,-1,-1,-1,-1,-1,-1,-1,-1,-1,-1,-1,-1,-1,-1,-1,-1,-1,-1,-1,-1,-1,-1,-1,-1,-1,-1,-1,-1,-1,-1,-1,-1,-1,-1],"split_conditions":[1.61198E1,1.70666E2,1.6029917E1,1.5941944E1,1.6000001E0,9.500142E0,1.3729637E2,1.4869351E1,2.0402834E1,2.8213251E1,3.2356625E2,2.19718E1,1.9721298E1,1.4003299E1,1.90392E1,7.32588E1,1.5530151E1,1.2099999E1,8.742293E1,2.0733472E2,2E-1,3.0088934E2,2.5927835E1,6.935597E0,8E-1,1.8844202E1,2.0304129E1,1.8486622E1,1.9511168E1,3.4309842E2,2.7288252E1,6.975937E1,1.4336861E1,8.8570465E1,6.830678E1,6.1621466E0,-1.2103627E0,1E-1,1E-1,2E-1,3E-1,1.5459054E1,1.1E0,2.6002832E1,7.9999995E0,-5.610294E0,1.5472767E0,8.515334E0,1.7339897E1,-7.2913003E0,6.935597E0,6.931999E0,2.11E1,4.1528325E0,4.8999996E0,1.8809086E1,1.2330135E1,1.8809086E1,2.0271582E1,2.6350748E1,1.6267416E1,1.5639587E2,1.5E0,1.1596091E0,7.361939E0,-5.299473E-1,3.2483644E0,-3.6407793E0,1.674618E-2,3.2236903E0,-1.3555526E0,1.1022484E0,4.5896554E0,-2.9785814E0,-3.711691E-1,7.6107483E0,-2.5865903E0,2.2732968E0,6.1010785E0,2.5279765E0,-1.417503E0,-4.487009E0,7.7581674E-1,-2.5339792E0,2.6043192E-1,3.8257594E0,1.0668608E1,5.182743E0,-1.3562031E0,-1.3740029E0,-7.0379753E0,6.564797E-1,-6.5475087E0,2.6077406E0,-4.2189085E-1,-3.1905167E0,3.8896375E0,-3.0432838E-1,7.413222E0,1.0883147E0,-1.9139675E0,9.351291E0,1.4894729E0,-4.794148E-1,4.8084364E0,-2.9511337E0,-6.4517884E0,2.873097E0,-1.8654575E0,2.2171583E0,-3.6989236E-1,1.9223894E0,-6.1548953E0,1.7179838E0,-9.369515E-1,-2.9652343E0,-7.804203E-1],"split_indices":[2,3,0,2,1,3,3,2,0,0,3,2,2,3,2,3,2,1,3,3,1,3,0,3,1,2,2,2,0,3,0,3,2,3,3,0,0,1,1,1,1,2,1,0,1,0,0,0,2,0,3,0,1,0,1,0,3,0,0,0,0,3,1,0,0,0,0,0,0,0,0,0,0,0,0,0,0,0,0,0,0,0,0,0,0,0,0,0,0,0,0,0,0,0,0,0,0,0,0,0,0,0,0,0,0,0,0,0,0,0,0,0,0,0,0,0,0],"split_type":[0,0,0,0,0,0,0,0,0,0,0,0,0,0,0,0,0,0,0,0,0,0,0,0,0,0,0,0,0,0,0,0,0,0,0,0,0,0,0,0,0,0,0,0,0,0,0,0,0,0,0,0,0,0,0,0,0,0,0,0,0,0,0,0,0,0,0,0,0,0,0,0,0,0,0,0,0,0,0,0,0,0,0,0,0,0,0,0,0,0,0,0,0,0,0,0,0,0,0,0,0,0,0,0,0,0,0,0,0,0,0,0,0,0,0,0,0],"sum_hessian":[1.822E3,6.57E2,1.165E3,4.62E2,1.95E2,5.03E2,6.62E2,4.39E2,2.3E1,1.4E2,5.5E1,4.4E1,4.59E2,3.1E2,3.52E2,3.14E2,1.25E2,1.3E1,1E1,1.27E2,1.3E1,4.5E1,1E1,2.6E1,1.8E1,1.97E2,2.62E2,3.2E1,2.78E2,1.15E2,2.37E2,1.36E2,1.78E2,6.9E1,5.6E1,1.2E1,1E0,5E0,5E0,2.4E1,1.03E2,6E0,7E0,3.6E1,9E0,9E0,1E0,1.9E1,7E0,1.1E1,7E0,1.56E2,4.1E1,2.5E1,2.37E2,6E0,2.6E1,6.7E1,2.11E2,1.08E2,7E0,1.56E2,8.1E1,1.29E2,7E0,1.55E2,2.3E1,4.1E1,2.8E1,2.4E1,3.2E1,2E0,3E0,2E0,3E0,2.1E1,3E0,8.9E1,1.4E1,3E0,3E0,6E0,1E0,1.4E1,2.2E1,7E0,2E0,1.1E1,8E0,3E0,4E0,5E0,2E0,3.9E1,1.17E2,4E1,1E0,4E0,2.1E1,1.93E2,4.4E1,2E0,4E0,2.4E1,2E0,5.7E1,1E1,1.4E1,1.97E2,5.2E1,5.6E1,2E0,5E0,2.4E1,1.32E2,4.5E1,3.6E1],"tree_param":{"num_deleted":"0","num_feature":"4","num_nodes":"117","size_leaf_vector":"1"}},{"base_weights":[8.884938E-3,2.3807962E0,-1.1082159E0,4.064392E0,-1.7775265E0,-8.6774284E-1,-1.1879557E1,-3.842648E0,5.433891E0,4.3078904E0,-4.5950694E0,-3.282236E0,-2.4447516E-1,8.829237E-1,-1.2562853E1,-1.2854956E1,-9.462466E-1,3.491634E0,1.1199606E1,9.627616E0,-3.2807662E0,-9.313776E0,4.52605E-1,-2.212014E0,-1.3223401E1,7.4308996E0,-5.410047E-1,-1.047839E0,-1.3173158E1,-1.5891368E1,-3.6038575E0,2.0376873E0,-1.6120628E1,7.9002233E0,2.6606242E-4,1.6633514E1,3.4690063E0,1.2212819E1,-6.7750483E0,-6.8060865E0,1.9987974E0,-4.7043004E0,-1.7650215E1,-5.6510825E0,2.2638338E0,1.17176075E1,-3.0478694E0,-3.5852766E0,-1.9851685E1,1.0464978E1,-6.6338534E0,-2.041923E-1,-6.230503E0,-7.41754E-1,-1.3530903E1,5.31744E-1,-5.3505006E0,-2.1845205E0,-2.591864E-1,2.2602208E0,-2.1063864E0,-6.9871626E0,1.0778229E0,1.5577087E0,7.1048007E0,1.0067539E0,-2.227456E0,6.9261003E0,2.2478178E0,-2.9403582E0,5.1765175E0,-5.48982E-1,5.68829E0,4.6846437E0,-4.882965E0,8.732038E0,-8.707628E-1,-3.1278758E0,2.3945317E0,-5.793027E0,-3.762825E-1,3.1847208E0,-8.146898E-1,-5.643097E-1,6.135566E0,-6.36569E-1,-3.7318788E0,4.546319E0,-2.092405E0,-6.5670786E0,9.9746937E-1,4.4086084E0,-3.116197E-1,-3.556515E0,7.374173E-2,5.384312E-1,-3.7869495E-1,-6.042264E0,-1.0857276E0,-4.4203434E0,-2.2995083E0],"categories":[],"categories_nodes":[],"categories_segments":[],"categories_sizes":[],"default_left":[0,0,0,0,0,0,0,0,0,0,0,0,0,0,0,0,0,0,0,0,0,0,0,0,0,0,0,0,0,0,0,0,0,0,0,0,0,0,0,0,0,0,0,0,0,0,0,0,0,0,0,0,0,0,0,0,0,0,0,0,0,0,0,0,0,0,0,0,0,0,0,0,0,0,0,0,0,0,0,0,0,0,0,0,0,0,0,0,0,0,0,0,0,0,0,0,0,0,0,0,0],"id":6,"left_children":[1,3,5,7,9,11,13,15,17,19,21,23,25,-1,27,29,31,33,35,37,39,41,43,45,47,49,51,-1,53,55,57,59,61,63,65,67,69,71,73,-1,75,77,79,-1,81,83,85,87,89,91,93,95,97,-1,99,-1,-1,-1,-1,-1,-1,-1,-1,-1,-1,-1,-1,-1,-1,-1,-1,-1,-1,-1,-1,-1,-1,-1,-1,-1,-1,-1,-1,-1,-1,-1,-1,-1,-1,-1,-1,-1,-1,-1,-1,-1,-1,-1,-1,-1,-1],"loss_changes":[4.832976E3,4.0957703E3,3.201562E3,4.525612E3,2.9174563E3,1.8261165E3,3.1043628E2,1.606238E3,3.9363633E3,2.2115425E3,2.7671604E3,2.6199243E3,2.2026123E3,0E0,9.791211E1,3.6408203E2,2.2062578E3,4.109663E3,3.6809531E3,1.4396777E3,2.4018396E3,2.2225654E3,2.034097E3,2.667066E3,1.4620474E3,1.6056719E3,1.7827971E3,0E0,5.8418945E1,4.0926465E2,4.409404E1,2.0943538E3,1.2144224E3,4.919958E3,3.7622546E3,2.8944932E3,7.120979E3,2.6880498E3,1.3178843E3,0E0,2.608928E3,2.9867837E3,5.472988E2,0E0,2.232993E3,1.5825369E3,1.8346517E3,8.043772E2,7.3424414E2,1.475217E3,2.5435437E2,1.8635986E3,1.8160453E3,0E0,4.944043E1,0E0,0E0,0E0,0E0,0E0,0E0,0E0,0E0,0E0,0E0,0E0,0E0,0E0,0E0,0E0,0E0,0E0,0E0,0E0,0E0,0E0,0E0,0E0,0E0,0E0,0E0,0E0,0E0,0E0,0E0,0E0,0E0,0E0,0E0,0E0,0E0,0E0,0E0,0E0,0E0,0E0,0E0,0E0,0E0,0E0,0E0],"parents":[2147483647,0,0,1,1,2,2,3,3,4,4,5,5,6,6,7,7,8,8,9,9,10,10,11,11,12,12,14,14,15,15,16,16,17,17,18,18,19,19,20,20,21,21,22,22,23,23,24,24,25,25,26,26,28,28,29,29,30,30,31,31,32,32,33,33,34,34,35,35,36,36,37,37,38,38,40,40,41,41,42,42,44,44,45,45,46,46,47,47,48,48,49,49,50,50,51,51,52,52,54,54],"right_children":[2,4,6,8,10,12,14,16,18,20,22,24,26,-1,28,30,32,34,36,38,40,42,44,46,48,50,52,-1,54,56,58,60,62,64,66,68,70,72,74,-1,76,78,80,-1,82,84,86,88,90,92,94,96,98,-1,100,-1,-1,-1,-1,-1,-1,-1,-1,-1,-1,-1,-1,-1,-1,-1,-1,-1,-1,-1,-1,-1,-1,-1,-1,-1,-1,-1,-1,-1,-1,-1,-1,-1,-1,-1,-1,-1,-1,-1,-1,-1,-1,-1,-1,-1,-1],"split_conditions":[1.2173665E1,8.000001E-1,3.290014E1,2.9361668E0,1.6575644E1,5.1971634E1,1.5204917E1,-3.7425005E-1,2.9620764E2,8.850751E0,8.279918E0,4.6707474E1,5.9359085E1,8.829237E-1,3E-1,3.0887228E2,2.773667E0,5.728141E1,3.4598077E2,3.2034808E2,9.17575E0,6.931999E0,1.722742E1,1.1440979E1,2E-1,2.5788248E1,3.4309842E2,-1.047839E0,4.4106812E0,1.1966953E1,2.3933907E1,3.363764E2,3.3533057E2,1.0742417E1,1.6700275E1,2.0948164E1,3.5333618E2,5.809084E0,5.1986656E0,-6.8060865E0,9.711167E0,6.311167E0,2.6674032E1,-5.6510825E0,2.0431387E1,1.5131413E1,1.1E1,1.6146584E1,2.7346586E1,3.4999998E0,1.5034041E1,2.0271582E1,1.4034083E1,-7.41754E-1,2.664242E1,5.31744E-1,-5.3505006E0,-2.1845205E0,-2.591864E-1,2.2602208E0,-2.1063864E0,-6.9871626E0,1.0778229E0,1.5577087E0,7.1048007E0,1.0067539E0,-2.227456E0,6.9261003E0,2.2478178E0,-2.9403582E0,5.1765175E0,-5.48982E-1,5.68829E0,4.6846437E0,-4.882965E0,8.732038E0,-8.707628E-1,-3.1278758E0,2.3945317E0,-5.793027E0,-3.762825E-1,3.1847208E0,-8.146898E-1,-5.643097E-1,6.135566E0,-6.36569E-1,-3.7318788E0,4.546319E0,-2.092405E0,-6.5670786E0,9.9746937E-1,4.4086084E0,-3.116197E-1,-3.556515E0,7.374173E-2,5.384312E-1,-3.7869495E-1,-6.042264E0,-1.0857276E0,-4.4203434E0,-2.2995083E0],"split_indices":[0,1,2,0,2,3,0,0,3,0,0,3,3,0,1,3,0,3,3,3,0,0,2,2,1,0,3,0,3,2,2,3,3,0,2,2,3,0,0,0,0,0,2,0,2,3,1,0,0,1,2,0,0,0,0,0,0,0,0,0,0,0,0,0,0,0,0,0,0,0,0,0,0,0,0,0,0,0,0,0,0,0,0,0,0,0,0,0,0,0,0,0,0,0,0,0,0,0,0,0,0],"split_type":[0,0,0,0,0,0,0,0,0,0,0,0,0,0,0,0,0,0,0,0,0,0,0,0,0,0,0,0,0,0,0,0,0,0,0,0,0,0,0,0,0,0,0,0,0,0,0,0,0,0,0,0,0,0,0,0,0,0,0,0,0,0,0,0,0,0,0,0,0,0,0,0,0,0,0,0,0,0,0,0,0,0,0,0,0,0,0,0,0,0,0,0,0,0,0,0,0,0,0,0,0],"sum_hessian":[1.822E3,5.83E2,1.239E3,4.15E2,1.68E2,1.213E3,2.6E1,6.1E1,3.54E2,5.3E1,1.15E2,2.48E2,9.65E2,1E0,2.5E1,1.4E1,4.7E1,2.66E2,8.8E1,3.1E1,2.2E1,5.9E1,5.6E1,2.25E2,2.3E1,3.5E1,9.3E2,2E0,2.3E1,1E1,4E0,4E1,7E0,1.17E2,1.49E2,5.1E1,3.7E1,2.7E1,4E0,4E0,1.8E1,3.9E1,2E1,4E0,5.2E1,1.2E1,2.13E2,1E1,1.3E1,2.9E1,6E0,8.79E2,5.1E1,1E0,2.2E1,1E0,9E0,1E0,3E0,2.5E1,1.5E1,5E0,2E0,1.01E2,1.6E1,1.03E2,4.6E1,2.9E1,2.2E1,1.9E1,1.8E1,9E0,1.8E1,1E0,3E0,2E0,1.6E1,2.7E1,1.2E1,1.8E1,2E0,1.9E1,3.3E1,5E0,7E0,1.95E2,1.8E1,1E0,9E0,1.2E1,1E0,2.1E1,8E0,3E0,3E0,3.04E2,5.75E2,7E0,4.4E1,1.7E1,5E0],"tree_param":{"num_deleted":"0","num_feature":"4","num_nodes":"101","size_leaf_vector":"1"}},{"base_weights":[-1.5961714E-3,3.2399309E0,-5.525924E-1,-9.814836E-1,8.754659E0,-2.5393312E1,-4.241914E-1,-5.390128E0,2.066488E0,3.0087057E1,6.2090483E0,-4.7635407E0,-9.442795E0,1.2802707E0,-1.3663347E0,-1.561292E0,-1.0994353E1,-1.8488122E0,8.8853035E0,1.72402E1,4.006055E1,8.885558E0,-8.011062E0,-6.944046E-2,-2.074153E0,-2.939492E-1,3.6287425E0,-9.101689E0,-1.1341417E0,3.630486E0,-1.4634791E1,-6.152969E0,-2.0513174E1,-8.710562E-2,-1.023532E1,1.23961315E1,-8.9794445E0,7.504022E0,-1.4618784E0,3.5901399E0,1.2985742E1,4.870531E0,1.6485592E1,-1.780991E1,8.531567E0,-1.5453064E0,5.290692E0,6.152314E0,-2.1156517E-1,-1.0489188E1,6.419693E0,-6.023561E-1,-4.067412E0,2.8138866E0,-2.8646274E0,-5.994489E0,1.8851968E0,-2.565962E0,5.1976595E0,-8.225186E0,-3.2661746E0,-5.448449E-1,3.6826956E0,4.656506E0,-3.0712836E0,-4.150882E0,1.468422E-1,8.088501E-1,-1.4666954E0,3.348983E0,-1.8660433E0,7.492785E0,3.07668E0,-9.515448E0,-2.5888648E0,7.630815E0,-6.745928E0,-3.2736725E-1,-5.573903E0,3.9364424E0,6.6444767E-1,2.4486191E0,-7.3821336E-2,3.9505002E-1,-2.5480423E0,-1.6122867E0,-4.6752405E0,3.2442743E-1,2.5644345E0,-2.3105569E-1,6.72203E0,-3.6028292E0,-9.4645095E-1],"categories":[],"categories_nodes":[],"categories_segments":[],"categories_sizes":[],"default_left":[0,0,0,0,0,0,0,0,0,0,0,0,0,0,0,0,0,0,0,0,0,0,0,0,0,0,0,0,0,0,0,0,0,0,0,0,0,0,0,0,0,0,0,0,0,0,0,0,0,0,0,0,0,0,0,0,0,0,0,0,0,0,0,0,0,0,0,0,0,0,0,0,0,0,0,0,0,0,0,0,0,0,0,0,0,0,0,0,0,0,0,0,0],"id":7,"left_children":[1,3,5,7,9,11,13,15,17,19,21,23,-1,25,27,29,31,33,35,37,39,41,43,-1,-1,45,47,49,51,53,55,57,59,61,-1,63,65,-1,67,-1,-1,69,71,73,75,77,79,81,83,85,87,89,91,-1,-1,-1,-1,-1,-1,-1,-1,-1,-1,-1,-1,-1,-1,-1,-1,-1,-1,-1,-1,-1,-1,-1,-1,-1,-1,-1,-1,-1,-1,-1,-1,-1,-1,-1,-1,-1,-1,-1,-1],"loss_changes":[3.2577947E3,6.17778E3,4.961773E3,2.0401893E3,6.0581445E3,8.5393506E2,2.494025E3,1.3132095E3,2.4192212E3,8.4688477E2,4.0294487E3,2.7635643E1,0E0,2.0455134E3,1.785773E3,2.63237E3,1.0258899E3,3.2942334E3,2.1810725E3,1.0541926E3,2.5644531E1,2.6049692E3,2.9076245E3,0E0,0E0,2.328318E3,2.1527686E3,6.918784E2,1.5137448E3,2.2111028E3,1.3559072E3,1.1625603E3,2.3316895E2,1.2193364E3,0E0,2.139709E3,2.827059E2,0E0,5.5931713E1,0E0,0E0,4.187094E3,1.3307021E3,1.1307964E3,4.2423677E3,2.083647E3,1.4402113E3,1.7251343E3,1.1377516E3,6.198696E2,2.4842125E1,3.199224E3,1.0420178E3,0E0,0E0,0E0,0E0,0E0,0E0,0E0,0E0,0E0,0E0,0E0,0E0,0E0,0E0,0E0,0E0,0E0,0E0,0E0,0E0,0E0,0E0,0E0,0E0,0E0,0E0,0E0,0E0,0E0,0E0,0E0,0E0,0E0,0E0,0E0,0E0,0E0,0E0,0E0,0E0],"parents":[2147483647,0,0,1,1,2,2,3,3,4,4,5,5,6,6,7,7,8,8,9,9,10,10,11,11,13,13,14,14,15,15,16,16,17,17,18,18,19,19,20,20,21,21,22,22,25,25,26,26,27,27,28,28,29,29,30,30,31,31,32,32,33,33,35,35,36,36,38,38,41,41,42,42,43,43,44,44,45,45,46,46,47,47,48,48,49,49,50,50,51,51,52,52],"right_children":[2,4,6,8,10,12,14,16,18,20,22,24,-1,26,28,30,32,34,36,38,40,42,44,-1,-1,46,48,50,52,54,56,58,60,62,-1,64,66,-1,68,-1,-1,70,72,74,76,78,80,82,84,86,88,90,92,-1,-1,-1,-1,-1,-1,-1,-1,-1,-1,-1,-1,-1,-1,-1,-1,-1,-1,-1,-1,-1,-1,-1,-1,-1,-1,-1,-1,-1,-1,-1,-1,-1,-1,-1,-1,-1,-1,-1,-1],"split_conditions":[6.931999E0,4.948667E0,7.1007495E0,2.686788E2,1.2324414E1,2.4539467E1,1.609969E1,4.7297462E1,3.2590835E0,1.0931203E1,2.2782625E1,1E-1,-9.442795E0,1.3557863E2,1.6299694E1,2.0674156E1,4.3069997E0,3.544852E2,1.3E0,1.0390226E1,5.1299167E0,1.5335513E2,6.2111664E0,-6.944046E-2,-2.074153E0,1.5530151E1,8E-1,3.0167414E1,9.299999E0,4.3965836E0,2.6674032E1,4.1528325E0,4.473667E0,3.4682834E2,-1.023532E1,4.621583E0,3.6999998E0,7.504022E0,5.1986656E0,3.5901399E0,1.2985742E1,4.6707474E1,3.2034808E2,2.3363974E1,3.5414624E2,1.3276376E2,1.5629972E1,2.6198816E2,3.2356625E2,1.6215992E1,3.1313248E1,9.1E0,9.465334E0,2.8138866E0,-2.8646274E0,-5.994489E0,1.8851968E0,-2.565962E0,5.1976595E0,-8.225186E0,-3.2661746E0,-5.448449E-1,3.6826956E0,4.656506E0,-3.0712836E0,-4.150882E0,1.468422E-1,8.088501E-1,-1.4666954E0,3.348983E0,-1.8660433E0,7.492785E0,3.07668E0,-9.515448E0,-2.5888648E0,7.630815E0,-6.745928E0,-3.2736725E-1,-5.573903E0,3.9364424E0,6.6444767E-1,2.4486191E0,-7.3821336E-2,3.9505002E-1,-2.5480423E0,-1.6122867E0,-4.6752405E0,3.2442743E-1,2.5644345E0,-2.3105569E-1,6.72203E0,-3.6028292E0,-9.4645095E-1],"split_indices":[0,0,0,3,2,3,2,3,0,2,2,1,0,3,2,2,0,3,1,2,0,3,0,0,0,2,1,0,1,0,2,0,0,3,0,0,1,0,0,0,0,3,3,2,3,3,2,3,3,2,0,1,0,0,0,0,0,0,0,0,0,0,0,0,0,0,0,0,0,0,0,0,0,0,0,0,0,0,0,0,0,0,0,0,0,0,0,0,0,0,0,0,0],"split_type":[0,0,0,0,0,0,0,0,0,0,0,0,0,0,0,0,0,0,0,0,0,0,0,0,0,0,0,0,0,0,0,0,0,0,0,0,0,0,0,0,0,0,0,0,0,0,0,0,0,0,0,0,0,0,0,0,0,0,0,0,0,0,0,0,0,0,0,0,0,0,0,0,0,0,0,0,0,0,0,0,0,0,0,0,0,0,0,0,0,0,0,0,0],"sum_hessian":[1.822E3,2.64E2,1.558E3,1.5E2,1.14E2,7E0,1.551E3,6.1E1,8.9E1,1.1E1,1.03E2,2E0,5E0,5.52E2,9.99E2,3.7E1,2.4E1,5.7E1,3.2E1,6E0,5E0,8.7E1,1.6E1,1E0,1E0,3.31E2,2.21E2,2.8E1,9.71E2,2.7E1,1E1,1.7E1,7E0,5.5E1,2E0,2.7E1,5E0,4E0,2E0,1E0,4E0,5.8E1,2.9E1,1E1,6E0,2.71E2,6E1,1.33E2,8.8E1,2.6E1,2E0,8.23E2,1.48E2,1.9E1,8E0,8E0,2E0,1.6E1,1E0,3E0,4E0,4.9E1,6E0,2.4E1,3E0,3E0,2E0,1E0,1E0,3.7E1,2.1E1,1.1E1,1.8E1,3E0,7E0,4E0,2E0,2.65E2,6E0,1.6E1,4.4E1,1.01E2,3.2E1,7.5E1,1.3E1,1.4E1,1.2E1,1E0,1E0,8.18E2,5E0,1.4E1,1.34E2],"tree_param":{"num_deleted":"0","num_feature":"4","num_nodes":"93","size_leaf_vector":"1"}},{"base_weights":[-7.920171E-3,4.193317E-1,-3.0752847E0,2.9402414E-1,2.2552176E1,-9.198043E0,-2.3932257E0,2.2817907E0,-4.736823E-1,2.768909E1,3.0486488E0,-1.3798099E1,7.3605027E0,9.371978E0,-2.9266977E0,1.9085941E0,2.2382435E1,3.5703487E0,-8.0802006E-1,9.1111355E0,1.7401383E0,9.581566E-3,1.3623104E0,1.3436389E0,-1.4995766E1,2.0268656E1,-3.399095E0,-2.551951E0,-6.0267572E0,2.60079E1,1.6259034E0,1.0197158E1,-2.4883666E0,1.5567143E1,1.2833424E0,-8.765618E0,-5.285633E-1,-1.9179266E1,-1.0209651E1,3.3481064E-1,7.4333405E0,5.9497327E-1,-6.260132E0,-1.7424339E0,-7.202266E0,9.879407E0,-2.528881E-1,-2.376274E0,6.916464E-1,7.7974873E0,-2.5185733E0,-1.5963813E0,1.2375845E0,-1.7058043E0,-6.964791E0,1.947605E0,-2.413793E-1,-3.6295211E0,-7.501724E0,2.5201814E0,-3.8732212E0,4.51458E-2,2.2259218E-1,-2.6115184E0,-2.0554104E-1,-1.5520389E0,-2.7114666E-1,-2.9413843E0,3.258893E0],"categories":[],"categories_nodes":[],"categories_segments":[],"categories_sizes":[],"default_left":[0,0,0,0,0,0,0,0,0,0,0,0,0,0,0,0,0,0,0,0,0,0,0,0,0,0,0,0,0,0,0,0,0,0,0,0,0,0,0,0,0,0,0,0,0,0,0,0,0,0,0,0,0,0,0,0,0,0,0,0,0,0,0,0,0,0,0,0,0],"id":8,"left_children":[1,3,5,7,9,11,13,15,17,19,21,23,-1,25,27,29,31,33,35,-1,-1,-1,-1,-1,37,39,41,43,-1,45,47,-1,-1,49,51,53,55,57,59,-1,-1,61,63,65,67,-1,-1,-1,-1,-1,-1,-1,-1,-1,-1,-1,-1,-1,-1,-1,-1,-1,-1,-1,-1,-1,-1,-1,-1],"loss_changes":[2.390399E3,4.433602E3,9.0925366E2,2.432033E3,8.1727783E2,3.7523625E3,1.2952635E3,3.2879438E3,1.5577681E3,2.3467627E2,1.3361254E1,5.0495605E2,0E0,1.3213556E3,1.196462E3,2.9348428E3,3.1307463E3,2.3944553E3,2.359271E3,0E0,0E0,0E0,0E0,0E0,1.8461768E2,4.0415674E2,6.0860493E1,7.0647156E2,0E0,9.572637E2,2.8275093E3,0E0,0E0,3.7153418E3,1.4296947E3,1.4700425E3,1.9974066E3,6.877881E1,6.614049E2,0E0,0E0,8.43631E-2,3.4927246E1,4.672016E2,1.4228448E3,0E0,0E0,0E0,0E0,0E0,0E0,0E0,0E0,0E0,0E0,0E0,0E0,0E0,0E0,0E0,0E0,0E0,0E0,0E0,0E0,0E0,0E0,0E0,0E0],"parents":[2147483647,0,0,1,1,2,2,3,3,4,4,5,5,6,6,7,7,8,8,9,9,10,10,11,11,13,13,14,14,15,15,16,16,17,17,18,18,24,24,25,25,26,26,27,27,29,29,30,30,33,33,34,34,35,35,36,36,37,37,38,38,41,41,42,42,43,43,44,44],"right_children":[2,4,6,8,10,12,14,16,18,20,22,24,-1,26,28,30,32,34,36,-1,-1,-1,-1,-1,38,40,42,44,-1,46,48,-1,-1,50,52,54,56,58,60,-1,-1,62,64,66,68,-1,-1,-1,-1,-1,-1,-1,-1,-1,-1,-1,-1,-1,-1,-1,-1,-1,-1,-1,-1,-1,-1,-1,-1],"split_conditions":[2.4798225E1,2.4648829E1,2.5323128E1,1.0894501E1,2.5146584E1,3.6999998E0,2.5630886E1,2.4149532E1,1.1440979E1,2E-1,2.5257002E1,1.5981198E1,7.3605027E0,1E-1,3.569387E2,1.2517053E0,3.6000001E0,1.4409085E1,1.2181624E1,9.1111355E0,1.7401383E0,9.581566E-3,1.3623104E0,1.3436389E0,1.3575749E1,3.457E0,1.6534082E1,2.5857E1,-6.0267572E0,5E-1,9.500142E0,1.0197158E1,-2.4883666E0,1.4899062E2,2.1369501E1,1.2015589E1,1.2904882E1,8.3945E0,1.4034083E1,3.3481064E-1,7.4333405E0,3.2590835E0,2.1811167E1,5.5569997E0,2.4264445E2,9.879407E0,-2.528881E-1,-2.376274E0,6.916464E-1,7.7974873E0,-2.5185733E0,-1.5963813E0,1.2375845E0,-1.7058043E0,-6.964791E0,1.947605E0,-2.413793E-1,-3.6295211E0,-7.501724E0,2.5201814E0,-3.8732212E0,4.51458E-2,2.2259218E-1,-2.6115184E0,-2.0554104E-1,-1.5520389E0,-2.7114666E-1,-2.9413843E0,3.258893E0],"split_indices":[2,2,2,0,0,1,2,2,2,1,0,3,0,1,3,3,1,0,2,0,0,0,0,0,0,0,0,0,0,1,3,0,0,3,0,2,2,0,0,0,0,0,0,0,3,0,0,0,0,0,0,0,0,0,0,0,0,0,0,0,0,0,0,0,0,0,0,0,0],"split_type":[0,0,0,0,0,0,0,0,0,0,0,0,0,0,0,0,0,0,0,0,0,0,0,0,0,0,0,0,0,0,0,0,0,0,0,0,0,0,0,0,0,0,0,0,0,0,0,0,0,0,0,0,0,0,0,0,0,0,0,0,0,0,0,0,0,0,0,0,0],"sum_hessian":[1.822E3,1.6E3,2.22E2,1.592E3,8E0,2.1E1,2.01E2,4.43E2,1.149E3,6E0,2E0,1.9E1,2E0,8E0,1.93E2,4.36E2,7E0,8.7E1,1.062E3,5E0,1E0,1E0,1E0,1E0,1.8E1,4E0,4E0,1.9E2,3E0,4E0,4.32E2,5E0,2E0,1.3E1,7.4E1,3.5E1,1.027E3,8E0,1E1,1E0,3E0,2E0,2E0,1.63E2,2.7E1,3E0,1E0,2.8E1,4.04E2,9E0,4E0,2.2E1,5.2E1,3E1,5E0,3.8E1,9.89E2,5E0,3E0,1E0,9E0,1E0,1E0,1E0,1E0,3.1E1,1.32E2,2.4E1,3E0],"tree_param":{"num_deleted":"0","num_feature":"4","num_nodes":"69","size_leaf_vector":"1"}},{"base_weights":[5.2823178E-3,3.243408E-1,-2.5007463E0,2.5000015E-1,2.0255524E1,-1.46592655E1,-1.9354563E0,5.720531E-1,-2.3495395E0,1.0083724E1,-1.2916512E0,-3.6890311E0,-6.809294E0,-4.829818E0,-2.432035E-1,4.7227862E-1,1.8322765E1,-1.0215699E1,-1.3453083E0,1.1195498E0,-1.9431616E0,5.4794984E0,-5.6684365E0,1.5401559E1,-1.4343871E0,-2.6850885E-1,1.9939992E0,2.0932547E1,8.144189E-3,1.142093E0,-1.1154102E1,2.2572327E-1,-4.8767204E0,-1.2760429E0,3.7981164E0,-8.866428E0,-3.4776216E0,2.2970182E1,-2.217725E0,2.330598E0,-3.2518876E0,-2.1618044E0,-1.5845113E-2,-1.3533981E0,7.3020375E-1,6.833352E0,1.479118E0,-4.398687E0,-2.1809275E0,-1.1680159E-1,5.032789E0,1.9703397E-1,-2.7150908E0,-8.111542E-1,4.511055E-1,-3.4386609E0,1.4542243E0,3.7660577E0,-1.3779051E0,1.8436433E-3,8.03895E0,1.8646451E0,-1.5151982E0,-1.6154269E0,1.3181438E0],"categories":[],"categories_nodes":[],"categories_segments":[],"categories_sizes":[],"default_left":[0,0,0,0,0,0,0,0,0,0,0,0,0,0,0,0,0,0,0,0,0,0,0,0,0,0,0,0,0,0,0,0,0,0,0,0,0,0,0,0,0,0,0,0,0,0,0,0,0,0,0,0,0,0,0,0,0,0,0,0,0,0,0,0,0],"id":9,"left_children":[1,3,5,7,9,11,13,15,17,-1,-1,19,-1,21,23,25,27,29,31,-1,-1,33,35,37,39,41,43,45,-1,-1,47,49,51,53,-1,55,57,59,-1,61,63,-1,-1,-1,-1,-1,-1,-1,-1,-1,-1,-1,-1,-1,-1,-1,-1,-1,-1,-1,-1,-1,-1,-1,-1],"loss_changes":[1.4584264E3,2.3923215E3,1.3874838E3,1.3517306E3,2.113072E3,7.0991406E2,9.6862756E2,2.5346006E3,1.3923575E3,0E0,0E0,1.2762515E2,0E0,6.6218823E2,2.3702004E3,1.6114066E3,3.8141235E2,3.056416E2,8.8322644E2,0E0,0E0,3.0721997E2,4.455879E2,1.7224763E3,8.150366E2,1.4391207E3,1.3505973E3,9.4396484E1,0E0,0E0,1.5232153E2,1.1364473E3,1.1375756E3,1.9941366E1,0E0,1.01670874E3,8.0866345E2,6.1490894E2,0E0,1.1497308E3,1.3282413E3,0E0,0E0,0E0,0E0,0E0,0E0,0E0,0E0,0E0,0E0,0E0,0E0,0E0,0E0,0E0,0E0,0E0,0E0,0E0,0E0,0E0,0E0,0E0,0E0],"parents":[2147483647,0,0,1,1,2,2,3,3,4,4,5,5,6,6,7,7,8,8,11,11,13,13,14,14,15,15,16,16,17,17,18,18,21,21,22,22,23,23,24,24,25,25,26,26,27,27,30,30,31,31,32,32,33,33,35,35,36,36,37,37,39,39,40,40],"right_children":[2,4,6,8,10,12,14,16,18,-1,-1,20,-1,22,24,26,28,30,32,-1,-1,34,36,38,40,42,44,46,-1,-1,48,50,52,54,-1,56,58,60,-1,62,64,-1,-1,-1,-1,-1,-1,-1,-1,-1,-1,-1,-1,-1,-1,-1,-1,-1,-1,-1,-1,-1,-1,-1,-1],"split_conditions":[1.0400001E1,1.01E1,1.08E1,2.4798225E1,2.0265795E1,1.0600001E1,9.294818E1,2.4648829E1,2.5323128E1,1.0083724E1,-1.2916512E0,9.500142E0,-6.809294E0,1.1799999E1,9.948712E1,1.70666E2,2.5146584E1,1.5981198E1,2.1077835E1,1.1195498E0,-1.9431616E0,1.002575E1,1.7E1,2.4521584E1,2.1688253E1,4.1528325E0,2.5174165E0,2E-1,8.144189E-3,1.142093E0,1.3575749E1,2.0652834E1,9E-1,9.465334E0,3.7981164E0,2.373271E1,1.1440979E1,1.3905509E1,-2.217725E0,2.0948164E1,2.3584808E1,-2.1618044E0,-1.5845113E-2,-1.3533981E0,7.3020375E-1,6.833352E0,1.479118E0,-4.398687E0,-2.1809275E0,-1.1680159E-1,5.032789E0,1.9703397E-1,-2.7150908E0,-8.111542E-1,4.511055E-1,-3.4386609E0,1.4542243E0,3.7660577E0,-1.3779051E0,1.8436433E-3,8.03895E0,1.8646451E0,-1.5151982E0,-1.6154269E0,1.3181438E0],"split_indices":[1,1,1,2,2,1,3,2,2,0,0,3,0,1,3,3,0,3,0,0,0,0,1,0,0,0,0,1,0,0,0,0,1,0,0,2,2,2,0,2,2,0,0,0,0,0,0,0,0,0,0,0,0,0,0,0,0,0,0,0,0,0,0,0,0],"split_type":[0,0,0,0,0,0,0,0,0,0,0,0,0,0,0,0,0,0,0,0,0,0,0,0,0,0,0,0,0,0,0,0,0,0,0,0,0,0,0,0,0,0,0,0,0,0,0,0,0,0,0,0,0,0,0,0,0,0,0,0,0,0,0,0,0],"sum_hessian":[1.822E3,1.617E3,2.05E2,1.612E3,5E0,8E0,1.97E2,1.435E3,1.77E2,3E0,2E0,4E0,4E0,7.2E1,1.25E2,1.428E3,7E0,1.9E1,1.58E2,1E0,3E0,5E0,6.7E1,8E0,1.17E2,9.61E2,4.67E2,6E0,1E0,1E0,1.8E1,1.1E2,4.8E1,3E0,2E0,2.6E1,4.1E1,6E0,2E0,3.8E1,7.9E1,2.8E1,9.33E2,2.9E1,4.38E2,5E0,1E0,8E0,1E1,1.07E2,3E0,2.1E1,2.7E1,2E0,1E0,2.2E1,4E0,2E0,3.9E1,1E0,5E0,2.5E1,1.3E1,6.2E1,1.7E1],"tree_param":{"num_deleted":"0","num_feature":"4","num_nodes":"65","size_leaf_vector":"1"}},{"base_weights":[1.1024919E-2,2.0732708E0,-3.3952427E-1,9.4603163E-1,1.3892654E1,-1.943145E1,-2.4089351E-1,7.944932E0,-7.7029146E-2,1.6368464E1,-6.0862703E0,-3.4769008E0,-2.4170149E1,-1.6829585E-1,-1.4231205E1,-1.0094211E0,2.2206776E1,-6.5858507E0,5.543741E-1,1.0815987E1,1.4378646E1,-1.6039354E-1,-1.4042119E0,-8.001425E0,-1.7495717E0,1.9358245E-1,-1.8039017E0,-1.6502348E1,2.5002024E-1,9.052045E0,-4.0905404E0,1.2147164E1,9.072558E0,1.9841893E-1,1.8658482E1,1.5573563E1,3.2707765E0,8.7656254E-1,-1.4192712E0,-2.7421017E0,2.4625669E0,-5.4793425E0,-8.894383E-1,-4.1031327E0,5.446083E0,-3.9416203E0,1.3220408E0,5.451336E0,-5.8254474E-1,1.8044559E0,-2.9797187E-1,3.0210915E-1,7.2619867E0,9.361879E0,1.1569288E0,-4.342493E0,3.1226537E0,1.6635594E-1,2.1621482E0,-3.7771578E0,-2.8612182E-1,1.0951835E0,-1.0307416E0,3.3722444E0,2.4316634E-1],"categories":[],"categories_nodes":[],"categories_segments":[],"categories_sizes":[],"default_left":[0,0,0,0,0,0,0,0,0,0,0,0,0,0,0,0,0,0,0,0,0,0,0,0,0,0,0,0,0,0,0,0,0,0,0,0,0,0,0,0,0,0,0,0,0,0,0,0,0,0,0,0,0,0,0,0,0,0,0,0,0,0,0,0,0],"id":10,"left_children":[1,3,5,7,9,11,13,15,17,19,-1,21,23,25,27,29,31,-1,33,35,-1,-1,-1,-1,-1,37,39,41,-1,43,45,47,-1,49,51,53,55,57,59,61,63,-1,-1,-1,-1,-1,-1,-1,-1,-1,-1,-1,-1,-1,-1,-1,-1,-1,-1,-1,-1,-1,-1,-1,-1],"loss_changes":[1.3185845E3,3.5175242E3,2.9309954E3,1.740565E3,2.278421E3,5.2079346E2,1.5739153E3,3.981289E3,2.9542227E3,3.3368418E3,0E0,8.123192E0,1.1966797E2,9.148196E2,2.8746423E2,6.570393E2,6.02605E2,0E0,1.3367019E3,6.6700073E2,0E0,0E0,0E0,0E0,0E0,1.3958026E3,1.1275369E3,1.1283374E2,0E0,1.2826433E3,1.2880695E3,6.2938464E2,0E0,1.4268705E3,3.6735413E2,2.0777004E3,1.2907013E3,1.810467E3,1.9486086E3,1.0325115E3,7.304791E2,0E0,0E0,0E0,0E0,0E0,0E0,0E0,0E0,0E0,0E0,0E0,0E0,0E0,0E0,0E0,0E0,0E0,0E0,0E0,0E0,0E0,0E0,0E0,0E0],"parents":[2147483647,0,0,1,1,2,2,3,3,4,4,5,5,6,6,7,7,8,8,9,9,11,11,12,12,13,13,14,14,15,15,16,16,18,18,19,19,25,25,26,26,27,27,29,29,30,30,31,31,33,33,34,34,35,35,36,36,37,37,38,38,39,39,40,40],"right_children":[2,4,6,8,10,12,14,16,18,20,-1,22,24,26,28,30,32,-1,34,36,-1,-1,-1,-1,-1,38,40,42,-1,44,46,48,-1,50,52,54,56,58,60,62,64,-1,-1,-1,-1,-1,-1,-1,-1,-1,-1,-1,-1,-1,-1,-1,-1,-1,-1,-1,-1,-1,-1,-1,-1],"split_conditions":[6.931999E0,6.6174164E0,7.1007495E0,1.2324414E1,3.4460284E2,2.4539467E1,3.5877548E2,4.621583E0,1.2979984E1,3.278889E2,-6.0862703E0,1E-1,2E-1,2.6938253E1,5.9E0,4.4833652E1,1.0931203E1,-6.5858507E0,3.569387E2,6.522488E1,1.4378646E1,-1.6039354E-1,-1.4042119E0,-8.001425E0,-1.7495717E0,2.4E0,2.1091739E2,2.1617416E1,2.5002024E-1,1.01887E1,1.8422328E2,1.0390226E1,9.072558E0,1.97806E1,3.457E0,1.7106628E1,1.3202726E1,1.7E0,2.7999995E0,1.2904882E1,2.1471788E2,-5.4793425E0,-8.894383E-1,-4.1031327E0,5.446083E0,-3.9416203E0,1.3220408E0,5.451336E0,-5.8254474E-1,1.8044559E0,-2.9797187E-1,3.0210915E-1,7.2619867E0,9.361879E0,1.1569288E0,-4.342493E0,3.1226537E0,1.6635594E-1,2.1621482E0,-3.7771578E0,-2.8612182E-1,1.0951835E0,-1.0307416E0,3.3722444E0,2.4316634E-1],"split_indices":[0,0,0,2,3,3,3,0,2,3,0,1,1,0,1,3,2,0,3,3,0,0,0,0,0,1,3,0,0,2,3,2,0,3,0,2,2,1,1,2,3,0,0,0,0,0,0,0,0,0,0,0,0,0,0,0,0,0,0,0,0,0,0,0,0],"split_type":[0,0,0,0,0,0,0,0,0,0,0,0,0,0,0,0,0,0,0,0,0,0,0,0,0,0,0,0,0,0,0,0,0,0,0,0,0,0,0,0,0,0,0,0,0,0,0,0,0,0,0,0,0,0,0,0,0,0,0,0,0,0,0,0,0],"sum_hessian":[1.822E3,2.64E2,1.558E3,2.42E2,2.2E1,7E0,1.551E3,3E1,2.12E2,2.1E1,1E0,2E0,5E0,1.544E3,7E0,1.9E1,1.1E1,5E0,2.07E2,1.9E1,2E0,1E0,1E0,4E0,1E0,1.265E3,2.79E2,6E0,1E0,4E0,1.5E1,6E0,5E0,2.04E2,3E0,1.1E1,8E0,8.89E2,3.76E2,2.29E2,5E1,5E0,1E0,1E0,3E0,7E0,8E0,4E0,2E0,3.4E1,1.7E2,1E0,2E0,4E0,7E0,2E0,6E0,8.47E2,4.2E1,1.4E1,3.62E2,2.2E1,2.07E2,7E0,4.3E1],"tree_param":{"num_deleted":"0","num_feature":"4","num_nodes":"65","size_leaf_vector":"1"}},{"base_weights":[1.717998E-2,-6.091122E-1,7.959798E-1,2.7560165E0,-1.1352991E0,1.0775914E1,6.076256E-1,7.764707E-1,8.730039E0,-8.593233E0,-7.01584E-1,1.5722147E1,7.362073E-1,1.7922841E0,-5.550784E-1,2.7835586E0,-7.2888556E0,-3.4980505E0,1.1079419E1,-1.1475127E1,1.3492542E1,1.1877308E-1,-3.877547E0,2.0320039E0,2.451024E1,2.2242944E0,-2.0822768E0,-2.178463E0,2.7887115E0,-3.9319494E0,4.534082E-2,2.1606143E0,8.17319E0,1.687439E0,-5.833422E0,7.454637E0,2.0568836E1,-1.5349876E1,-5.240759E0,1.6158514E1,2.4402238E-2,-4.2897257E-1,4.885636E0,-1.2886948E1,-2.4512377E0,-2.917019E0,1.3110069E1,1.0592591E1,1.0283884E1,-1.0787808E0,1.2547429E-1,-1.0491408E0,-2.3373299E1,3.5408363E0,-3.1803975E0,-7.657356E0,5.393041E0,1.7399069E1,-2.6193854E-1,4.1431883E-1,5.163448E0,-1.0463514E0,2.4919705E0,-2.7305214E0,3.075975E0,7.7709656E0,-2.5157743E0,-5.93584E0,-8.685105E-1,8.223487E-1,-4.668242E0,2.5422135E-1,5.9323325E0,2.5288186E0,-2.3085734E-1,4.495043E0,-6.388836E-1,-5.0685267E0,3.8558963E-1,2.2545204E0,-1.0399871E0,5.2715254E0,6.28006E-1,6.9321215E-1,3.6514125E0,1.3936272E-1,-8.289929E-2,-6.6821194E-1,3.9793515E0,-9.4250765E0,1.1363526E-1,7.1623653E-1,3.199822E0,-1.6881975E0,7.6834726E0,2.929683E-1,-2.9716225E0,9.90654E-2,6.9091105E0,6.480659E0,-5.424855E-1,-5.229019E0,-3.249879E-2],"categories":[],"categories_nodes":[],"categories_segments":[],"categories_sizes":[],"default_left":[0,0,0,0,0,0,0,0,0,0,0,0,0,0,0,0,0,0,0,0,0,0,0,0,0,0,0,0,0,0,0,0,0,0,0,0,0,0,0,0,0,0,0,0,0,0,0,0,0,0,0,0,0,0,0,0,0,0,0,0,0,0,0,0,0,0,0,0,0,0,0,0,0,0,0,0,0,0,0,0,0,0,0,0,0,0,0,0,0,0,0,0,0,0,0,0,0,0,0,0,0,0,0],"id":11,"left_children":[1,3,5,7,9,11,13,15,17,19,21,23,25,27,29,31,33,-1,35,37,39,41,43,45,47,-1,49,51,53,55,57,59,-1,61,-1,63,65,67,69,71,-1,73,75,77,79,-1,81,-1,83,-1,85,87,89,91,93,95,97,99,101,-1,-1,-1,-1,-1,-1,-1,-1,-1,-1,-1,-1,-1,-1,-1,-1,-1,-1,-1,-1,-1,-1,-1,-1,-1,-1,-1,-1,-1,-1,-1,-1,-1,-1,-1,-1,-1,-1,-1,-1,-1,-1,-1,-1],"loss_changes":[8.896644E2,1.7932932E3,1.5216991E3,1.6133629E3,2.8242625E3,7.33306E2,1.1015432E3,1.703822E3,1.7579358E3,3.2099734E3,2.1577515E3,1.1532979E3,1.2837149E2,1.5728734E3,8.1930383E2,1.2210837E3,2.3242231E3,0E0,9.129758E2,9.5828955E2,2.1320898E2,1.7227635E3,2.152943E3,7.7860986E2,5.5862134E2,0E0,1.7160107E1,1.890342E3,1.4344375E3,2.1603984E3,1.8389176E3,9.500635E2,0E0,4.7429773E2,0E0,1.2053593E3,1.4528674E3,1.379293E3,1.5253832E3,2.6006226E2,0E0,1.792393E3,4.848951E3,1.3282158E3,1.523759E3,0E0,1.10675354E2,0E0,3.2072693E1,0E0,5.370855E-1,1.3281346E3,7.761111E2,2.2920437E3,2.6803914E3,8.636907E2,1.599699E3,5.234486E2,8.9211676E2,0E0,0E0,0E0,0E0,0E0,0E0,0E0,0E0,0E0,0E0,0E0,0E0,0E0,0E0,0E0,0E0,0E0,0E0,0E0,0E0,0E0,0E0,0E0,0E0,0E0,0E0,0E0,0E0,0E0,0E0,0E0,0E0,0E0,0E0,0E0,0E0,0E0,0E0,0E0,0E0,0E0,0E0,0E0,0E0],"parents":[2147483647,0,0,1,1,2,2,3,3,4,4,5,5,6,6,7,7,8,8,9,9,10,10,11,11,12,12,13,13,14,14,15,15,16,16,18,18,19,19,20,20,21,21,22,22,23,23,24,24,26,26,27,27,28,28,29,29,30,30,31,31,33,33,35,35,36,36,37,37,38,38,39,39,41,41,42,42,43,43,44,44,46,46,48,48,50,50,51,51,52,52,53,53,54,54,55,55,56,56,57,57,58,58],"right_children":[2,4,6,8,10,12,14,16,18,20,22,24,26,28,30,32,34,-1,36,38,40,42,44,46,48,-1,50,52,54,56,58,60,-1,62,-1,64,66,68,70,72,-1,74,76,78,80,-1,82,-1,84,-1,86,88,90,92,94,96,98,100,102,-1,-1,-1,-1,-1,-1,-1,-1,-1,-1,-1,-1,-1,-1,-1,-1,-1,-1,-1,-1,-1,-1,-1,-1,-1,-1,-1,-1,-1,-1,-1,-1,-1,-1,-1,-1,-1,-1,-1,-1,-1,-1,-1,-1],"split_conditions":[1.4393129E2,1.2904882E1,1.4586633E2,1.2181624E1,1.3551501E1,2.5146584E1,1.872346E1,1.1841756E1,5.409083E0,3.8E0,1.0797911E2,1.2864649E1,1.758481E1,1.2620554E1,1.9721298E1,1.1753876E1,1E-1,-3.4980505E0,1.27279215E1,2E-1,2.3540329E1,9.294818E1,1.1138626E2,1.3134082E1,2.0265795E1,2.2242944E0,2.8511164E1,1.257426E1,3.4598077E2,1.5E0,1.9829433E1,1.3729637E2,8.17319E0,1.4504917E1,-5.833422E0,8.223668E0,2.46695E1,1.7250751E1,1.6825748E1,8.113251E0,2.4402238E-2,1.4081477E1,1.80695E1,1.8075441E1,1.4440443E1,-2.917019E0,1.4171585E1,1.0592591E1,1.8217419E1,-1.0787808E0,2.8604914E1,1.61E1,1.5323667E1,3.1499988E2,1.8374111E1,1.6415448E2,2.7909088E1,3.1000001E0,1.9881649E1,4.1431883E-1,5.163448E0,-1.0463514E0,2.4919705E0,-2.7305214E0,3.075975E0,7.7709656E0,-2.5157743E0,-5.93584E0,-8.685105E-1,8.223487E-1,-4.668242E0,2.5422135E-1,5.9323325E0,2.5288186E0,-2.3085734E-1,4.495043E0,-6.388836E-1,-5.0685267E0,3.8558963E-1,2.2545204E0,-1.0399871E0,5.2715254E0,6.28006E-1,6.9321215E-1,3.6514125E0,1.3936272E-1,-8.289929E-2,-6.6821194E-1,3.9793515E0,-9.4250765E0,1.1363526E-1,7.1623653E-1,3.199822E0,-1.6881975E0,7.6834726E0,2.929683E-1,-2.9716225E0,9.90654E-2,6.9091105E0,6.480659E0,-5.424855E-1,-5.229019E0,-3.249879E-2],"split_indices":[3,2,3,2,2,0,2,2,0,1,3,2,2,2,2,2,1,0,2,1,0,3,3,0,2,0,0,2,3,1,2,3,0,0,0,0,0,0,0,0,0,2,0,2,2,0,0,0,0,0,0,1,0,3,2,3,0,1,2,0,0,0,0,0,0,0,0,0,0,0,0,0,0,0,0,0,0,0,0,0,0,0,0,0,0,0,0,0,0,0,0,0,0,0,0,0,0,0,0,0,0,0,0],"split_type":[0,0,0,0,0,0,0,0,0,0,0,0,0,0,0,0,0,0,0,0,0,0,0,0,0,0,0,0,0,0,0,0,0,0,0,0,0,0,0,0,0,0,0,0,0,0,0,0,0,0,0,0,0,0,0,0,0,0,0,0,0,0,0,0,0,0,0,0,0,0,0,0,0,0,0,0,0,0,0,0,0,0,0,0,0,0,0,0,0,0,0,0,0,0,0,0,0,0,0,0,0,0,0],"sum_hessian":[1.822E3,1.01E3,8.12E2,1.36E2,8.74E2,1.4E1,7.98E2,1.03E2,3.3E1,4.7E1,8.27E2,9E0,5E0,3.95E2,4.03E2,8.3E1,2E1,3E0,3E1,4.2E1,5E0,6.58E2,1.69E2,4E0,5E0,1E0,4E0,7.9E1,3.16E2,6E1,3.43E2,8.2E1,1E0,1.2E1,8E0,2.3E1,7E0,2.5E1,1.7E1,4E0,1E0,5.91E2,6.7E1,2.2E1,1.47E2,2E0,2E0,2E0,3E0,2E0,2E0,7.6E1,3E0,2.81E2,3.5E1,4.3E1,1.7E1,5E0,3.38E2,7.9E1,3E0,7E0,5E0,3E0,2E1,6E0,1E0,1.8E1,7E0,1E1,7E0,1E0,3E0,2.1E1,5.7E2,2.7E1,4E1,1.7E1,5E0,1.3E1,1.34E2,1E0,1E0,1E0,2E0,1E0,1E0,7.1E1,5E0,2E0,1E0,2.43E2,3.8E1,3.3E1,2E0,9E0,3.4E1,1.4E1,3E0,4E0,1E0,2E0,3.36E2],"tree_param":{"num_deleted":"0","num_feature":"4","num_nodes":"103","size_leaf_vector":"1"}},{"base_weights":[3.273403E-2,-6.976407E0,9.474372E-2,-9.531451E0,-2.329714E0,2.1366956E0,-2.3276284E-1,-3.6622612E0,-1.4668188E1,-1.8734741E-1,-1.5371263E0,1.2993293E0,1.03446455E1,-1.53847065E1,-1.5451007E-1,-6.7574472E0,1.685407E0,-6.6117555E-1,-5.169983E0,-2.9778175E0,1.64618E0,2.725112E0,-2.5620422E0,1.2381055E1,-5.168454E0,-2.8014603E0,-1.9112211E1,-8.7378934E-2,-7.5231028E0,5.3489804E-1,-3.0595777E0,5.910416E-2,6.99329E-1,1.4617997E-1,-1.2885803E0,2.3456528E0,6.806097E0,-1.3889976E1,1.5358996E-1,8.026068E0,1.1186185E1,-1.0170594E-1,-1.1589513E0,-6.2548647E0,-1.5638295E0,1.9683937E-2,-3.9995708E0,-1.0649877E0,-4.7869277E0,1.2388564E0,-2.534828E-1,-3.1290438E-2,-6.2309327E0,6.674108E0,-8.1945044E-1,3.1492991E0,1.528202E-1,-1.0445317E-2,3.4923894E0,-3.7088091E0,-7.4838525E-1,-2.483118E0,3.0058103E0],"categories":[],"categories_nodes":[],"categories_segments":[],"categories_sizes":[],"default_left":[0,0,0,0,0,0,0,0,0,0,0,0,0,0,0,0,0,0,0,0,0,0,0,0,0,0,0,0,0,0,0,0,0,0,0,0,0,0,0,0,0,0,0,0,0,0,0,0,0,0,0,0,0,0,0,0,0,0,0,0,0,0,0],"id":12,"left_children":[1,3,5,7,9,11,13,15,17,19,-1,21,23,25,27,29,31,-1,-1,33,-1,35,37,39,-1,41,43,45,47,-1,-1,-1,-1,-1,-1,49,-1,51,53,55,-1,-1,-1,-1,-1,57,59,61,-1,-1,-1,-1,-1,-1,-1,-1,-1,-1,-1,-1,-1,-1,-1],"loss_changes":[7.93E2,1.6775446E2,1.2096022E3,2.4776617E2,4.0941086E1,1.7048243E3,1.8461007E3,1.1070122E2,1.2187891E2,9.5514275E1,0E0,1.2622305E3,1.5047427E3,3.216908E2,7.670579E2,1.357396E2,2.4238615E0,0E0,0E0,2.0353245E1,0E0,1.2117614E3,1.9094084E3,2.0869885E3,0E0,6.5335045E0,3.6204346E1,6.446897E2,7.4549365E2,0E0,0E0,0E0,0E0,0E0,0E0,9.426037E2,0E0,1.1359458E3,3.3115886E3,3.662157E2,0E0,0E0,0E0,0E0,0E0,9.498677E2,4.8519055E2,8.024014E2,0E0,0E0,0E0,0E0,0E0,0E0,0E0,0E0,0E0,0E0,0E0,0E0,0E0,0E0,0E0],"parents":[2147483647,0,0,1,1,2,2,3,3,4,4,5,5,6,6,7,7,8,8,9,9,11,11,12,12,13,13,14,14,15,15,16,16,19,19,21,21,22,22,23,23,25,25,26,26,27,27,28,28,35,35,37,37,38,38,39,39,45,45,46,46,47,47],"right_children":[2,4,6,8,10,12,14,16,18,20,-1,22,24,26,28,30,32,-1,-1,34,-1,36,38,40,-1,42,44,46,48,-1,-1,-1,-1,-1,-1,50,-1,52,54,56,-1,-1,-1,-1,-1,58,60,62,-1,-1,-1,-1,-1,-1,-1,-1,-1,-1,-1,-1,-1,-1,-1],"split_conditions":[-3.7425005E-1,2.3933907E1,6.931999E0,-1.5034165E0,3.290014E1,6.6174164E0,7.1007495E0,2.9288312E2,1.3684735E1,3.0911821E1,-1.5371263E0,2E-1,3.4460284E2,2.4539467E1,3.5792282E2,1.1966953E1,1.8374111E1,-6.6117555E-1,-5.169983E0,-1.5034165E0,1.64618E0,1E-1,4E-1,3.278889E2,-5.168454E0,1E-1,1.0839574E2,3.175355E1,2.0833395E1,5.3489804E-1,-3.0595777E0,5.910416E-2,6.99329E-1,1.4617997E-1,-1.2885803E0,1.9969458E1,6.806097E0,2.2071636E1,5E-1,1.993048E1,1.1186185E1,-1.0170594E-1,-1.1589513E0,-6.2548647E0,-1.5638295E0,3.137168E1,8.711309E0,1.6700275E1,-4.7869277E0,1.2388564E0,-2.534828E-1,-3.1290438E-2,-6.2309327E0,6.674108E0,-8.1945044E-1,3.1492991E0,1.528202E-1,-1.0445317E-2,3.4923894E0,-3.7088091E0,-7.4838525E-1,-2.483118E0,3.0058103E0],"split_indices":[0,2,0,0,2,0,0,3,2,2,0,1,3,3,3,2,2,0,0,0,0,1,1,3,0,1,3,2,2,0,0,0,0,0,0,2,0,3,1,2,0,0,0,0,0,2,3,2,0,0,0,0,0,0,0,0,0,0,0,0,0,0,0],"split_type":[0,0,0,0,0,0,0,0,0,0,0,0,0,0,0,0,0,0,0,0,0,0,0,0,0,0,0,0,0,0,0,0,0,0,0,0,0,0,0,0,0,0,0,0,0,0,0,0,0,0,0,0,0,0,0,0,0,0,0,0,0,0,0],"sum_hessian":[1.822E3,1.5E1,1.807E3,9E0,6E0,2.49E2,1.558E3,5E0,4E0,4E0,2E0,2.27E2,2.2E1,7E0,1.551E3,3E0,2E0,1E0,3E0,3E0,1E0,1.66E2,6.1E1,2.1E1,1E0,2E0,5E0,1.538E3,1.3E1,1E0,2E0,1E0,1E0,1E0,2E0,1.64E2,2E0,1.1E1,5E1,1.9E1,2E0,1E0,1E0,4E0,1E0,1.498E3,4E1,8E0,5E0,1.05E2,5.9E1,4E0,7E0,5E0,4.5E1,1.4E1,5E0,1.492E3,6E0,5E0,3.5E1,5E0,3E0],"tree_param":{"num_deleted":"0","num_feature":"4","num_nodes":"63","size_leaf_vector":"1"}},{"base_weights":[1.948717E-2,1.3491385E-1,-2.710461E0,7.0913605E-2,1.25075245E1,-5.251713E0,-2.7271014E-2,-1.8305069E-1,1.5873048E0,2.3375004E1,3.177951E0,3.1525042E0,-5.96167E0,2.8605223E0,-5.578622E0,7.8745395E-2,-3.9104414E0,5.2194705E0,-4.8841026E-1,2.0119412E0,8.008708E0,5.1278358E0,-9.857209E-1,-7.227303E0,1.7819856E0,-3.700446E0,6.782345E0,6.355279E-1,-9.541906E0,-2.2875382E-1,2.6537807E0,7.782542E-1,-6.8929195E0,8.591135E0,-4.2065245E-1,-6.2521405E0,5.2485937E-1,4.421908E-1,2.4312608E0,-8.342043E0,4.60701E-1,-3.8379022E-1,1.0897362E0,8.76121E-1,-1.0784327E1,-6.135193E-1,1.6378958E1,1.3296152E0,-1.0101868E0,-1.1092919E1,1.9727756E-1,-1.4483341E0,-3.229149E-2,1.6161743E0,-4.4719467E-1,-1.4630234E0,2.0962665E0,-3.5360231E0,-3.7654543E-1,-5.520592E-1,3.3376763E0,-6.738543E0,4.7875085E-1,-4.8088636E0,2.711754E0,2.129757E0,-5.142696E-1,1.7667733E-1,2.2308541E-2,-8.854177E-1,-2.999515E0,-1.0693512E0,1.2997017E0,1.5777185E0,-5.7866025E-1,-7.1292E-1,-3.8384507E0,2.1583633E0,-1.039456E0,6.5577655E0,5.356629E-1,-9.709254E-2,-5.6345505E-1,-4.167166E0,-8.197669E-1],"categories":[],"categories_nodes":[],"categories_segments":[],"categories_sizes":[],"default_left":[0,0,0,0,0,0,0,0,0,0,0,0,0,0,0,0,0,0,0,0,0,0,0,0,0,0,0,0,0,0,0,0,0,0,0,0,0,0,0,0,0,0,0,0,0,0,0,0,0,0,0,0,0,0,0,0,0,0,0,0,0,0,0,0,0,0,0,0,0,0,0,0,0,0,0,0,0,0,0,0,0,0,0,0,0],"id":13,"left_children":[1,3,5,7,9,11,13,15,17,19,21,-1,23,25,27,29,31,33,35,-1,-1,37,-1,39,41,43,45,47,49,51,53,55,57,59,61,63,65,67,-1,69,71,-1,-1,73,75,77,79,-1,81,83,-1,-1,-1,-1,-1,-1,-1,-1,-1,-1,-1,-1,-1,-1,-1,-1,-1,-1,-1,-1,-1,-1,-1,-1,-1,-1,-1,-1,-1,-1,-1,-1,-1,-1,-1],"loss_changes":[5.748091E2,1.3848506E3,5.0443762E2,6.711509E2,8.382158E2,4.8782788E2,6.091104E2,1.4572017E3,1.8873846E3,4.2369873E1,9.2469376E1,0E0,3.755022E2,6.683715E2,3.2623398E2,1.1059897E3,1.37579E3,1.7341245E3,9.3771564E2,0E0,0E0,6.6147385E1,0E0,2.7808728E2,3.863588E1,3.336469E2,1.1456528E3,4.196516E1,1.3385107E2,6.946332E2,1.6960007E3,1.4035066E3,1.6406199E3,1.5274233E3,1.5914463E3,3.7331204E3,2.0288817E3,1.1812514E-1,0E0,2.204961E2,9.336332E1,0E0,0E0,9.6202705E1,3.7211212E1,2.4756203E2,5.207992E2,0E0,2.371735E0,1.25767944E2,0E0,0E0,0E0,0E0,0E0,0E0,0E0,0E0,0E0,0E0,0E0,0E0,0E0,0E0,0E0,0E0,0E0,0E0,0E0,0E0,0E0,0E0,0E0,0E0,0E0,0E0,0E0,0E0,0E0,0E0,0E0,0E0,0E0,0E0,0E0],"parents":[2147483647,0,0,1,1,2,2,3,3,4,4,5,5,6,6,7,7,8,8,9,9,10,10,12,12,13,13,14,14,15,15,16,16,17,17,18,18,21,21,23,23,24,24,25,25,26,26,27,27,28,28,29,29,30,30,31,31,32,32,33,33,34,34,35,35,36,36,37,37,39,39,40,40,43,43,44,44,45,45,46,46,48,48,49,49],"right_children":[2,4,6,8,10,12,14,16,18,20,22,-1,24,26,28,30,32,34,36,-1,-1,38,-1,40,42,44,46,48,50,52,54,56,58,60,62,64,66,68,-1,70,72,-1,-1,74,76,78,80,-1,82,84,-1,-1,-1,-1,-1,-1,-1,-1,-1,-1,-1,-1,-1,-1,-1,-1,-1,-1,-1,-1,-1,-1,-1,-1,-1,-1,-1,-1,-1,-1,-1,-1,-1,-1,-1],"split_conditions":[2.27E1,2.11E1,2.060823E1,3.1090387E2,2.1900002E1,1.0140334E1,6.29E1,2.718228E2,3.3533057E2,2.4569502E1,2.7021585E1,3.1525042E0,4.8000004E1,2.9700003E1,6.300097E1,1.9146126E2,7.7486672E0,2.3110205E1,3.2590835E0,2.0119412E0,8.008708E0,1.7418196E1,-9.857209E-1,2.7092415E1,2.1929918E1,2.7E1,1.5240697E2,1.5204917E1,2.664242E1,4.1528325E0,9E-1,3.457E0,1.82945E1,1.1966953E1,2.3363974E1,2.1413193E1,7.4632506E0,1.27090845E1,2.4312608E0,2.060492E1,2.5400003E1,-3.8379022E-1,1.0897362E0,2.233161E1,7.142488E1,2.1413193E1,2.7212759E1,1.3296152E0,2.4863249E1,1.6415448E2,1.9727756E-1,-1.4483341E0,-3.229149E-2,1.6161743E0,-4.4719467E-1,-1.4630234E0,2.0962665E0,-3.5360231E0,-3.7654543E-1,-5.520592E-1,3.3376763E0,-6.738543E0,4.7875085E-1,-4.8088636E0,2.711754E0,2.129757E0,-5.142696E-1,1.7667733E-1,2.2308541E-2,-8.854177E-1,-2.999515E0,-1.0693512E0,1.2997017E0,1.5777185E0,-5.7866025E-1,-7.1292E-1,-3.8384507E0,2.1583633E0,-1.039456E0,6.5577655E0,5.356629E-1,-9.709254E-2,-5.6345505E-1,-4.167166E0,-8.197669E-1],"split_indices":[1,1,2,3,1,0,1,3,3,0,0,0,1,1,3,3,0,2,0,0,0,2,0,0,0,1,3,0,0,0,1,0,0,2,2,2,0,0,0,0,1,0,0,2,3,2,2,0,0,3,0,0,0,0,0,0,0,0,0,0,0,0,0,0,0,0,0,0,0,0,0,0,0,0,0,0,0,0,0,0,0,0,0,0,0],"split_type":[0,0,0,0,0,0,0,0,0,0,0,0,0,0,0,0,0,0,0,0,0,0,0,0,0,0,0,0,0,0,0,0,0,0,0,0,0,0,0,0,0,0,0,0,0,0,0,0,0,0,0,0,0,0,0,0,0,0,0,0,0,0,0,0,0,0,0,0,0,0,0,0,0,0,0,0,0,0,0,0,0,0,0,0,0],"sum_hessian":[1.822E3,1.749E3,7.3E1,1.741E3,8E0,3.7E1,3.6E1,1.492E3,2.49E2,3E0,5E0,1E0,3.6E1,2.4E1,1.2E1,1.395E3,9.7E1,9E1,1.59E2,1E0,2E0,4E0,1E0,3.1E1,5E0,9E0,1.5E1,5E0,7E0,1.247E3,1.48E2,3.8E1,5.9E1,5.6E1,3.4E1,2.3E1,1.36E2,2E0,2E0,2.7E1,4E0,2E0,3E0,6E0,3E0,9E0,6E0,1E0,4E0,6E0,1E0,3.1E1,1.216E3,8.9E1,5.9E1,2E1,1.8E1,3.1E1,2.8E1,1.1E1,4.5E1,2E0,3.2E1,1.4E1,9E0,3.4E1,1.02E2,1E0,1E0,7E0,2E1,2E0,2E0,2E0,4E0,1E0,2E0,2E0,7E0,4E0,2E0,3E0,1E0,4E0,2E0],"tree_param":{"num_deleted":"0","num_feature":"4","num_nodes":"85","size_leaf_vector":"1"}},{"base_weights":[1.6309854E-2,2.4068691E-1,-1.3456699E0,-2.540352E0,3.881744E-1,2.7266216E0,-2.0833228E0,6.605262E-2,-8.889253E0,5.722148E0,2.0640157E-1,-1.121258E1,4.586882E0,-5.5897593E0,9.773577E-2,4.8416634E0,-9.01091E0,-1.3173582E1,7.905626E-1,9.591089E0,-1.0325833E1,-5.349702E0,3.445646E-1,-8.096798E-1,-3.7998774E0,1.2770436E1,-5.938409E-1,-7.869625E0,-2.622826E0,5.206635E0,-1.2155386E0,9.15828E0,-5.274197E0,-1.6093744E1,3.6250582E0,-8.060362E0,-6.105667E0,-5.1572037E0,8.02763E0,1.994141E1,3.2508633E0,-1.7001228E1,3.9375658E0,6.2852514E-1,-1.248813E1,7.953891E0,2.2344565E-1,-1.3066475E0,1.44228525E1,1.7300011E0,-3.6193774E0,1.4141049E0,-9.529631E0,1.0694378E1,-4.9646564E0,1.8188484E1,1.3233185E-2,-5.1609E0,-6.007709E-1,4.795903E0,1.26042E0,-3.2455246E0,1.3954171E0,-5.7297864E0,2.9959157E0,2.1028235E0,-1.3056004E0,4.2071137E-1,-4.1003933E0,7.307556E-1,-3.3093576E0,2.7958832E0,6.2275314E-1,7.931991E0,2.6212034E0,1.9405136E0,-3.466913E0,-3.187241E-1,-6.949282E0,2.827072E-3,2.358299E0,-3.615997E0,1.6978089E0,-4.615002E0,-9.1259927E-1,3.6066048E0,2.2257921E-1,-3.1852078E0,8.586599E-2,4.829986E0,1.0397614E0,-2.5739536E0,8.1725866E-1,-2.6872258E0,6.505736E0,-9.309458E-1,-4.393982E0,8.692532E-2,3.815206E0,-1.9343058E0,1.3889539E0,1.0177525E0,6.766518E0,8.2166153E-1,-2.1772025E0,4.147169E0,-3.4653583E-1],"categories":[],"categories_nodes":[],"categories_segments":[],"categories_sizes":[],"default_left":[0,0,0,0,0,0,0,0,0,0,0,0,0,0,0,0,0,0,0,0,0,0,0,0,0,0,0,0,0,0,0,0,0,0,0,0,0,0,0,0,0,0,0,0,0,0,0,0,0,0,0,0,0,0,0,0,0,0,0,0,0,0,0,0,0,0,0,0,0,0,0,0,0,0,0,0,0,0,0,0,0,0,0,0,0,0,0,0,0,0,0,0,0,0,0,0,0,0,0,0,0,0,0,0,0,0,0],"id":14,"left_children":[1,3,5,7,9,11,13,15,17,19,21,23,25,27,29,31,33,35,37,39,41,43,45,-1,-1,47,49,51,53,55,57,59,61,63,65,67,-1,69,71,73,75,77,79,81,83,85,87,-1,89,91,-1,93,95,97,99,101,103,-1,105,-1,-1,-1,-1,-1,-1,-1,-1,-1,-1,-1,-1,-1,-1,-1,-1,-1,-1,-1,-1,-1,-1,-1,-1,-1,-1,-1,-1,-1,-1,-1,-1,-1,-1,-1,-1,-1,-1,-1,-1,-1,-1,-1,-1,-1,-1,-1,-1],"loss_changes":[5.5742725E2,6.433099E2,7.806964E2,1.3078635E3,1.4415413E3,1.0886526E3,1.6754021E3,2.514466E3,9.642595E2,3.1413828E3,1.1072566E3,2.769513E1,1.5338657E3,5.47553E2,9.1880536E2,1.7076221E3,1.84831E3,4.2324927E2,3.8575522E2,2.560108E3,1.01908167E3,1.5014789E3,1.2940396E3,0E0,0E0,4.5900684E2,6.3396454E2,7.377947E2,1.2381859E3,1.8875183E3,1.0609796E3,8.466741E2,7.10676E2,1.2097368E3,2.4648247E2,6.0286456E2,0E0,2.4987794E2,1.1412323E1,8.6113916E2,1.3134565E3,6.6301135E2,6.1573093E1,1.3442205E3,3.9078076E2,6.365419E2,9.4556464E2,0E0,1.8308716E2,2.28373E2,0E0,1.8762346E3,1.2699146E3,1.2260492E2,4.994065E2,4.403435E2,4.36033E2,0E0,8.635753E2,0E0,0E0,0E0,0E0,0E0,0E0,0E0,0E0,0E0,0E0,0E0,0E0,0E0,0E0,0E0,0E0,0E0,0E0,0E0,0E0,0E0,0E0,0E0,0E0,0E0,0E0,0E0,0E0,0E0,0E0,0E0,0E0,0E0,0E0,0E0,0E0,0E0,0E0,0E0,0E0,0E0,0E0,0E0,0E0,0E0,0E0,0E0,0E0],"parents":[2147483647,0,0,1,1,2,2,3,3,4,4,5,5,6,6,7,7,8,8,9,9,10,10,11,11,12,12,13,13,14,14,15,15,16,16,17,17,18,18,19,19,20,20,21,21,22,22,25,25,26,26,27,27,28,28,29,29,30,30,31,31,32,32,33,33,34,34,35,35,37,37,38,38,39,39,40,40,41,41,42,42,43,43,44,44,45,45,46,46,48,48,49,49,51,51,52,52,53,53,54,54,55,55,56,56,58,58],"right_children":[2,4,6,8,10,12,14,16,18,20,22,24,26,28,30,32,34,36,38,40,42,44,46,-1,-1,48,50,52,54,56,58,60,62,64,66,68,-1,70,72,74,76,78,80,82,84,86,88,-1,90,92,-1,94,96,98,100,102,104,-1,106,-1,-1,-1,-1,-1,-1,-1,-1,-1,-1,-1,-1,-1,-1,-1,-1,-1,-1,-1,-1,-1,-1,-1,-1,-1,-1,-1,-1,-1,-1,-1,-1,-1,-1,-1,-1,-1,-1,-1,-1,-1,-1,-1,-1,-1,-1,-1,-1],"split_conditions":[2.722367E1,9.500142E0,1.3849477E1,6.935597E0,1.4417468E1,5.8486652E1,2.8511164E1,2.19718E1,1.6146584E1,1.5E0,1.7841196E1,2.7436167E1,2.8213251E1,2.1000001E0,2.8784086E1,5E-1,3E-1,1.8844202E1,1E-1,1.1986165E1,2.0304129E1,1.6379917E1,1.97806E1,-8.096798E-1,-3.7998774E0,2.7288252E1,1.1400001E1,2.7346586E1,3.4999998E0,1.90392E1,1.4689589E1,8.515334E0,5.5650244E0,2.851282E1,8.599999E0,7.51686E0,-6.105667E0,1.741325E1,2.3417414E1,1.8043148E1,2.436591E1,4.1528325E0,9.465334E0,7.854917E0,2.3307001E1,2.1605999E1,2.0561237E1,-1.3066475E0,2.1900002E1,1.0390226E1,-3.6193774E0,1.3729637E2,1.1533042E2,2.3999999E0,2.2974796E2,4.9810333E1,2.2725668E1,-5.1609E0,6.734905E1,4.795903E0,1.26042E0,-3.2455246E0,1.3954171E0,-5.7297864E0,2.9959157E0,2.1028235E0,-1.3056004E0,4.2071137E-1,-4.1003933E0,7.307556E-1,-3.3093576E0,2.7958832E0,6.2275314E-1,7.931991E0,2.6212034E0,1.9405136E0,-3.466913E0,-3.187241E-1,-6.949282E0,2.827072E-3,2.358299E0,-3.615997E0,1.6978089E0,-4.615002E0,-9.1259927E-1,3.6066048E0,2.2257921E-1,-3.1852078E0,8.586599E-2,4.829986E0,1.0397614E0,-2.5739536E0,8.1725866E-1,-2.6872258E0,6.505736E0,-9.309458E-1,-4.393982E0,8.692532E-2,3.815206E0,-1.9343058E0,1.3889539E0,1.0177525E0,6.766518E0,8.2166153E-1,-2.1772025E0,4.147169E0,-3.4653583E-1],"split_indices":[0,3,2,3,3,3,0,2,0,1,3,0,0,1,0,1,1,2,1,0,2,0,3,0,0,0,1,0,1,2,2,0,3,2,1,3,0,0,0,2,2,0,0,0,0,2,3,0,1,2,0,3,3,1,3,3,2,0,3,0,0,0,0,0,0,0,0,0,0,0,0,0,0,0,0,0,0,0,0,0,0,0,0,0,0,0,0,0,0,0,0,0,0,0,0,0,0,0,0,0,0,0,0,0,0,0,0],"split_type":[0,0,0,0,0,0,0,0,0,0,0,0,0,0,0,0,0,0,0,0,0,0,0,0,0,0,0,0,0,0,0,0,0,0,0,0,0,0,0,0,0,0,0,0,0,0,0,0,0,0,0,0,0,0,0,0,0,0,0,0,0,0,0,0,0,0,0,0,0,0,0,0,0,0,0,0,0,0,0,0,0,0,0,0,0,0,0,0,0,0,0,0,0,0,0,0,0,0,0,0,0,0,0,0,0,0,0],"sum_hessian":[1.822E3,1.565E3,2.57E2,7.8E1,1.487E3,3.9E1,2.18E2,5.6E1,2.2E1,4.8E1,1.439E3,4E0,3.5E1,8.3E1,1.35E2,3.7E1,1.9E1,1.5E1,7E0,3.9E1,9E0,3.4E1,1.405E3,1E0,3E0,1.3E1,2.2E1,4.6E1,3.7E1,2.7E1,1.08E2,2.6E1,1.1E1,1.2E1,7E0,1E1,5E0,4E0,3E0,1.4E1,2.5E1,6E0,3E0,1.9E1,1.5E1,2.1E1,1.384E3,1E0,1.2E1,1.9E1,3E0,7E0,3.9E1,5E0,3.2E1,7E0,2E1,3E0,1.05E2,1E1,1.6E1,7E0,4E0,1.1E1,1E0,5E0,2E0,4E0,6E0,2E0,2E0,2E0,1E0,8E0,6E0,2.1E1,4E0,2E0,4E0,2E0,1E0,5E0,1.4E1,1.1E1,4E0,1.3E1,8E0,7E0,1.377E3,1E1,2E0,1E0,1.8E1,5E0,2E0,1.8E1,2.1E1,1E0,4E0,2.8E1,4E0,2E0,5E0,1.5E1,5E0,3E0,1.02E2],"tree_param":{"num_deleted":"0","num_feature":"4","num_nodes":"107","size_leaf_vector":"1"}},{"base_weights":[7.149956E-3,2.0180082E0,-1.0825997E-1,8.0689806E-1,9.313541E0,-2.574927E0,2.2979188E-3,3.4558842E0,-4.803712E0,-6.4299164E0,1.8774342E1,9.226895E0,-5.24133E0,2.786472E0,-9.713831E-2,1.5268945E0,2.024081E1,-8.271776E0,3.4368448E0,1.6741608E0,-2.9844344E0,3.1885273E0,6.8315787E0,1.7825363E1,-5.2086234E0,-1.7892252E1,-2.9941673E0,3.907815E0,-1.8700308E1,-7.8044443E0,-2.8913783E-2,8.858814E0,-2.081253E0,3.990452E-1,7.127074E0,3.1246011E0,-9.803485E0,8.303139E0,-4.7218075E0,1.7068405E-1,1.2641534E0,2.5897267E0,2.1808443E1,1.9935723E-1,-6.5161576E0,-7.0503993E0,-5.005575E0,-1.528554E0,-4.266014E0,-3.1393301E0,5.2402353E0,-8.509752E0,9.461404E-2,3.4914129E0,-1.0195254E1,-6.0422647E-1,6.650273E-1,-1.2456172E0,7.6924233E0,3.4510684E0,-1.6903486E0,-8.271126E-1,-3.44962E0,3.307835E-1,2.8568168E0,-1.6407396E0,-3.7197533E-1,-1.510064E0,2.675441E0,1.88863E0,7.003412E0,-2.2721863E0,-3.42746E-1,-6.454779E0,6.678824E0,9.594887E-3,-3.737293E0,3.375856E0,5.708881E-1,-3.7407138E0,2.5635362E0,-9.201796E-3,-8.557932E-1,3.4341664E0,1.4897041E-1],"categories":[],"categories_nodes":[],"categories_segments":[],"categories_sizes":[],"default_left":[0,0,0,0,0,0,0,0,0,0,0,0,0,0,0,0,0,0,0,0,0,0,0,0,0,0,0,0,0,0,0,0,0,0,0,0,0,0,0,0,0,0,0,0,0,0,0,0,0,0,0,0,0,0,0,0,0,0,0,0,0,0,0,0,0,0,0,0,0,0,0,0,0,0,0,0,0,0,0,0,0,0,0,0,0],"id":15,"left_children":[1,3,5,7,9,11,13,15,17,19,21,23,25,27,29,31,33,35,37,-1,-1,39,-1,41,43,45,47,49,51,53,55,57,59,-1,-1,-1,61,63,65,-1,-1,67,69,-1,71,-1,73,75,-1,-1,77,-1,-1,-1,79,81,83,-1,-1,-1,-1,-1,-1,-1,-1,-1,-1,-1,-1,-1,-1,-1,-1,-1,-1,-1,-1,-1,-1,-1,-1,-1,-1,-1,-1],"loss_changes":[4.2328754E2,8.6721875E2,4.704298E2,1.2947699E3,2.2059575E3,2.3770242E3,4.576232E2,1.8793933E3,8.286348E2,3.090467E2,4.881421E2,1.8305725E3,1.6805773E3,1.4464382E3,8.3899475E2,1.4469885E3,3.673506E2,6.7457043E2,3.965274E2,0E0,0E0,5.660244E0,0E0,4.896848E2,5.040619E1,5.3290356E2,8.502622E2,1.1080791E3,5.603363E2,7.694188E2,6.3238776E2,4.0368765E3,1.8508115E3,0E0,0E0,0E0,1.9526147E2,4.2190033E1,3.6271286E0,0E0,0E0,1.8961945E2,1.9859375E1,0E0,1.9768097E1,0E0,2.2798423E3,8.190503E2,0E0,0E0,1.0019398E3,0E0,0E0,0E0,6.605017E2,1.116696E3,1.2984625E3,0E0,0E0,0E0,0E0,0E0,0E0,0E0,0E0,0E0,0E0,0E0,0E0,0E0,0E0,0E0,0E0,0E0,0E0,0E0,0E0,0E0,0E0,0E0,0E0,0E0,0E0,0E0,0E0],"parents":[2147483647,0,0,1,1,2,2,3,3,4,4,5,5,6,6,7,7,8,8,9,9,10,10,11,11,12,12,13,13,14,14,15,15,16,16,17,17,18,18,21,21,23,23,24,24,25,25,26,26,27,27,28,28,29,29,30,30,31,31,32,32,36,36,37,37,38,38,41,41,42,42,44,44,46,46,47,47,50,50,54,54,55,55,56,56],"right_children":[2,4,6,8,10,12,14,16,18,20,22,24,26,28,30,32,34,36,38,-1,-1,40,-1,42,44,46,48,50,52,54,56,58,60,-1,-1,-1,62,64,66,-1,-1,68,70,-1,72,-1,74,76,-1,-1,78,-1,-1,-1,80,82,84,-1,-1,-1,-1,-1,-1,-1,-1,-1,-1,-1,-1,-1,-1,-1,-1,-1,-1,-1,-1,-1,-1,-1,-1,-1,-1,-1,-1],"split_conditions":[1.1013882E1,3.0088934E2,1.2181624E1,1.4586633E2,9.9571085E0,6.6174164E0,1.2904882E1,1.0829959E1,2.5146584E1,5.5569997E0,5.1986656E0,9.294818E1,9.465334E0,3.3249362E2,1.3004921E1,1.5323667E1,1.3511167E1,1.3174167E0,3.9999998E0,1.6741608E0,-2.9844344E0,4.3069997E0,6.8315787E0,2.2445E0,-1.5034165E0,1.0839574E2,1.2015589E1,5.409083E0,1.5323667E1,2.0561237E1,1.4393129E2,7.4632506E0,3.735965E1,3.990452E-1,7.127074E0,3.1246011E0,5.5569997E0,2.5677835E1,2.8784086E1,1.7068405E-1,1.2641534E0,1.1966954E1,1.6532558E1,1.9935723E-1,1E-1,-7.0503993E0,8.457E0,2.5672934E2,-4.266014E0,-3.1393301E0,1.1431999E1,-8.509752E0,9.461404E-2,3.4914129E0,2.7828082E2,1.0797911E2,1.4586633E2,-1.2456172E0,7.6924233E0,3.4510684E0,-1.6903486E0,-8.271126E-1,-3.44962E0,3.307835E-1,2.8568168E0,-1.6407396E0,-3.7197533E-1,-1.510064E0,2.675441E0,1.88863E0,7.003412E0,-2.2721863E0,-3.42746E-1,-6.454779E0,6.678824E0,9.594887E-3,-3.737293E0,3.375856E0,5.708881E-1,-3.7407138E0,2.5635362E0,-9.201796E-3,-8.557932E-1,3.4341664E0,1.4897041E-1],"split_indices":[2,3,2,3,2,0,2,2,0,0,0,3,0,3,2,0,0,0,1,0,0,0,0,0,0,3,2,0,0,3,3,0,3,0,0,0,0,0,0,0,0,2,3,0,1,0,0,3,0,0,0,0,0,0,3,3,3,0,0,0,0,0,0,0,0,0,0,0,0,0,0,0,0,0,0,0,0,0,0,0,0,0,0,0,0],"split_type":[0,0,0,0,0,0,0,0,0,0,0,0,0,0,0,0,0,0,0,0,0,0,0,0,0,0,0,0,0,0,0,0,0,0,0,0,0,0,0,0,0,0,0,0,0,0,0,0,0,0,0,0,0,0,0,0,0,0,0,0,0,0,0,0,0,0,0,0,0,0,0,0,0,0,0,0,0,0,0,0,0,0,0,0,0],"sum_hessian":[1.822E3,9.8E1,1.724E3,8.5E1,1.3E1,7.3E1,1.651E3,5.8E1,2.7E1,5E0,8E0,1.3E1,6E1,5.6E1,1.595E3,5.3E1,5E0,1.9E1,8E0,1E0,4E0,2E0,6E0,8E0,5E0,8E0,5.2E1,5.4E1,2E0,1.3E1,1.582E3,1.7E1,3.6E1,1E0,4E0,1E0,1.8E1,5E0,3E0,1E0,1E0,2E0,6E0,1E0,4E0,5E0,3E0,4.7E1,5E0,4E0,5E1,1E0,1E0,1E0,1.2E1,8.65E2,7.17E2,1E1,7E0,7E0,2.9E1,4E0,1.4E1,1E0,4E0,2E0,1E0,1E0,1E0,1E0,5E0,3E0,1E0,2E0,1E0,4.2E1,5E0,1.7E1,3.3E1,1.1E1,1E0,6.9E2,1.75E2,1E1,7.07E2],"tree_param":{"num_deleted":"0","num_feature":"4","num_nodes":"85","size_leaf_vector":"1"}},{"base_weights":[1.2113099E-2,-4.940377E0,5.593375E-2,-6.814086E0,-1.5578831E0,5.665572E-1,-3.3644748E-1,-1.8104662E0,-1.1455612E1,1.7544861E-1,-1.1782426E0,-3.5838537E0,7.763691E-1,-2.760719E0,1.8796332E-1,-4.404237E0,6.754151E-1,-3.7777176E-1,-1.3689896E1,-1.9343796E0,1.2922143E0,1.9158137E0,-9.801029E0,6.676913E0,5.379611E-1,-3.604609E0,1.3861233E1,8.8911E0,-6.730316E-2,1.6945381E-1,-1.8746641E0,-4.8374104E0,-9.5782244E-1,3.0848008E-1,-9.794052E-1,8.872663E0,-8.345837E0,-5.2225704E0,-1.8087519E1,2.776055E0,1.8540173E1,7.29039E-2,3.5289178E0,-4.394063E0,8.493119E0,7.925812E-1,7.247291E0,1.3575356E1,-1.7924017E1,1.6385872E0,-1.1701734E0,1.3422295E0,6.612953E0,-3.453697E0,2.547908E0,-4.427005E0,1.9633307E-1,-7.452885E0,-9.15332E-1,3.122618E0,-5.965853E-1,-2.516017E0,7.327733E0,-3.6614126E-1,4.656187E-1,4.8188686E0,8.09505E-2,4.7907457E0,-1.4618067E0,6.64108E0,1.8287201E-1,1.5379137E0,-1.1416229E0,5.3797355E0,-1.1861522E0,-6.7915545E0,-5.670788E-1,2.8796694E-1,3.723452E0,-1.6865661E0,-1.5727124E-1],"categories":[],"categories_nodes":[],"categories_segments":[],"categories_sizes":[],"default_left":[0,0,0,0,0,0,0,0,0,0,0,0,0,0,0,0,0,0,0,0,0,0,0,0,0,0,0,0,0,0,0,0,0,0,0,0,0,0,0,0,0,0,0,0,0,0,0,0,0,0,0,0,0,0,0,0,0,0,0,0,0,0,0,0,0,0,0,0,0,0,0,0,0,0,0,0,0,0,0,0,0],"id":16,"left_children":[1,3,5,7,9,11,13,15,17,19,-1,21,23,25,27,29,-1,-1,31,33,-1,35,37,39,41,43,45,47,49,-1,-1,-1,-1,-1,-1,51,53,55,57,59,61,63,65,67,69,71,-1,73,75,77,79,-1,-1,-1,-1,-1,-1,-1,-1,-1,-1,-1,-1,-1,-1,-1,-1,-1,-1,-1,-1,-1,-1,-1,-1,-1,-1,-1,-1,-1,-1],"loss_changes":[3.9590628E2,9.078937E1,3.6243982E2,2.115044E2,2.944009E1,6.8723535E2,1.3010734E3,7.312867E1,9.666907E1,5.192044E1,0E0,1.3180881E3,1.0500537E3,2.602896E3,1.8712017E3,4.019439E1,0E0,0E0,5.0752075E1,1.9121853E1,0E0,1.5732135E3,5.8844507E2,1.290561E3,1.0026293E3,1.699123E3,1.1918943E3,3.257938E3,1.5427643E3,0E0,0E0,0E0,0E0,0E0,0E0,6.5448425E2,5.7765466E2,7.380748E2,5.336659E2,8.57144E2,1.3142195E3,1.1975854E3,3.9580444E3,1.6762168E3,1.1696838E3,1.1914178E2,0E0,1.6748064E3,2.5957166E2,2.3424065E3,1.4290627E3,0E0,0E0,0E0,0E0,0E0,0E0,0E0,0E0,0E0,0E0,0E0,0E0,0E0,0E0,0E0,0E0,0E0,0E0,0E0,0E0,0E0,0E0,0E0,0E0,0E0,0E0,0E0,0E0,0E0,0E0],"parents":[2147483647,0,0,1,1,2,2,3,3,4,4,5,5,6,6,7,7,8,8,9,9,11,11,12,12,13,13,14,14,15,15,18,18,19,19,21,21,22,22,23,23,24,24,25,25,26,26,27,27,28,28,35,35,36,36,37,37,38,38,39,39,40,40,41,41,42,42,43,43,44,44,45,45,47,47,48,48,49,49,50,50],"right_children":[2,4,6,8,10,12,14,16,18,20,-1,22,24,26,28,30,-1,-1,32,34,-1,36,38,40,42,44,46,48,50,-1,-1,-1,-1,-1,-1,52,54,56,58,60,62,64,66,68,70,72,-1,74,76,78,80,-1,-1,-1,-1,-1,-1,-1,-1,-1,-1,-1,-1,-1,-1,-1,-1,-1,-1,-1,-1,-1,-1,-1,-1,-1,-1,-1,-1,-1,-1],"split_conditions":[-3.7425005E-1,2.3933907E1,1E-1,-1.5034165E0,3.290014E1,9.500142E0,4E-1,2.9288312E2,1.3684735E1,3.0911821E1,-1.1782426E0,5.5650244E0,1.4417468E1,3.5333618E2,5E-1,1.1966953E1,6.754151E-1,-3.7777176E-1,2.19718E1,-1.5034165E0,1.2922143E0,2.19718E1,2.1605999E1,1.2977418E1,2.303156E1,2.5812277E1,1.966536E1,2.1479666E1,1.6981165E1,1.6945381E-1,-1.8746641E0,-4.8374104E0,-9.5782244E-1,3.0848008E-1,-9.794052E-1,2.1046917E1,2.7757376E1,1.5192682E1,1.6146584E1,1.1563679E1,4.473667E0,1.5627833E1,2.3933907E1,1.01887E1,2.7504093E1,8.604917E0,7.247291E0,2.4740335E1,8.604917E0,1.673516E1,8.279918E0,1.3422295E0,6.612953E0,-3.453697E0,2.547908E0,-4.427005E0,1.9633307E-1,-7.452885E0,-9.15332E-1,3.122618E0,-5.965853E-1,-2.516017E0,7.327733E0,-3.6614126E-1,4.656187E-1,4.8188686E0,8.09505E-2,4.7907457E0,-1.4618067E0,6.64108E0,1.8287201E-1,1.5379137E0,-1.1416229E0,5.3797355E0,-1.1861522E0,-6.7915545E0,-5.670788E-1,2.8796694E-1,3.723452E0,-1.6865661E0,-1.5727124E-1],"split_indices":[0,2,1,0,2,3,1,3,2,2,0,3,3,3,1,2,0,0,2,0,0,2,2,3,2,2,2,2,2,0,0,0,0,0,0,2,2,2,0,3,0,0,2,2,2,0,0,0,0,2,0,0,0,0,0,0,0,0,0,0,0,0,0,0,0,0,0,0,0,0,0,0,0,0,0,0,0,0,0,0,0],"split_type":[0,0,0,0,0,0,0,0,0,0,0,0,0,0,0,0,0,0,0,0,0,0,0,0,0,0,0,0,0,0,0,0,0,0,0,0,0,0,0,0,0,0,0,0,0,0,0,0,0,0,0,0,0,0,0,0,0,0,0,0,0,0,0,0,0,0,0,0,0,0,0,0,0,0,0,0,0,0,0,0,0],"sum_hessian":[1.822E3,1.5E1,1.807E3,9E0,6E0,7.85E2,1.022E3,5E0,4E0,4E0,2E0,3.7E1,7.48E2,1.81E2,8.41E2,3E0,2E0,1E0,3E0,3E0,1E0,2E1,1.7E1,2.8E1,7.2E2,1.73E2,8E0,2.3E1,8.18E2,1E0,2E0,2E0,1E0,1E0,2E0,1.2E1,8E0,1.2E1,5E0,2.2E1,6E0,6.24E2,9.6E1,1.63E2,1E1,4E0,4E0,2E1,3E0,3.21E2,4.97E2,1E1,2E0,7E0,1E0,4E0,8E0,3E0,2E0,8E0,1.4E1,1E0,5E0,3.33E2,2.91E2,1.9E1,7.7E1,3E0,1.6E2,3E0,7E0,2E0,2E0,1.6E1,4E0,2E0,1E0,3.03E2,1.8E1,6.2E1,4.35E2],"tree_param":{"num_deleted":"0","num_feature":"4","num_nodes":"81","size_leaf_vector":"1"}},{"base_weights":[1.7161401E-2,1.9888712E-1,-1.085938E0,2.99986E-1,-2.482836E0,3.1499398E0,-1.2174664E0,1.0461051E-2,1.5179515E0,-4.760412E0,1.3569629E0,-2.079011E0,6.6956204E-1,3.6506936E-1,-3.2461126E0,2.300706E0,-6.871273E0,-3.4733884E0,-5.327963E0,7.431416E0,-2.6449685E0,-2.47598E0,5.5620823E0,7.7901692E0,-1.0667906E0,-9.647597E0,4.3788788E-1,-5.0518985E0,4.187526E0,1.5551513E1,1.8825315E0,-1.3693801E1,-4.4809513E0,-5.2291374E0,4.0458064E0,-2.0121064E0,1.5388655E1,9.756476E-1,-4.7648273E0,-1.5939503E0,-5.782152E0,-4.9550424E0,9.274838E0,3.6929653E0,1.6065426E1,-2.631273E0,4.932092E0,7.2495234E-1,-3.514877E0,5.558379E0,1.1635044E-1,-2.5660198E0,-5.1779044E-1,-1.3916068E0,2.9377506E0,8.358832E0,-1.1176324E0,-8.915924E-3,1.3297403E0,8.057625E-1,-5.2520733E0,2.2405072E-1,-2.206009E0,-2.0061176E0,3.693245E-1,2.2931237E0,-1.6907531E-1,-2.4416544E-2,-7.423316E-1,5.284087E0,9.7331774E-1,-9.599339E-1,7.3520666E-1,4.45562E-1,-1.7195197E0,-9.919019E-1,1.0032395E0,-4.473478E0,-1.338084E0,-3.3809133E0,1.151144E0,3.7395325E0,-1.4800175E0,2.1980577E0,-3.4862137E-1,1.4492947E0,5.299887E0,9.217703E-1,-1.1140705E0,3.6425424E0,-5.9787613E-1],"categories":[],"categories_nodes":[],"categories_segments":[],"categories_sizes":[],"default_left":[0,0,0,0,0,0,0,0,0,0,0,0,0,0,0,0,0,0,0,0,0,0,0,0,0,0,0,0,0,0,0,0,0,0,0,0,0,0,0,0,0,0,0,0,0,0,0,0,0,0,0,0,0,0,0,0,0,0,0,0,0,0,0,0,0,0,0,0,0,0,0,0,0,0,0,0,0,0,0,0,0,0,0,0,0,0,0,0,0,0,0],"id":17,"left_children":[1,3,5,7,9,-1,11,13,15,17,19,21,23,25,27,29,31,33,-1,35,37,39,41,43,45,47,49,51,53,55,57,59,61,63,65,67,69,71,73,75,77,79,81,83,85,87,89,-1,-1,-1,-1,-1,-1,-1,-1,-1,-1,-1,-1,-1,-1,-1,-1,-1,-1,-1,-1,-1,-1,-1,-1,-1,-1,-1,-1,-1,-1,-1,-1,-1,-1,-1,-1,-1,-1,-1,-1,-1,-1,-1,-1],"loss_changes":[3.6565735E2,4.2531754E2,4.0593735E2,5.324575E2,5.0494943E2,0E0,4.175863E2,1.4112056E3,1.9201526E3,5.4061523E2,5.544659E2,5.4762866E2,1.0097853E3,8.077009E2,1.6319822E3,1.444669E3,3.463396E2,4.7001785E2,0E0,7.0726294E2,1.12101524E2,4.8069543E2,3.9738486E2,4.831576E2,6.3239734E2,2.2796454E2,9.842953E2,1.1148745E3,1.2327216E3,2.0023899E3,1.2630465E3,4.2176648E2,3.0581885E2,2.7194995E2,1.2039805E2,4.261776E0,7.795752E1,4.479523E1,6.290152E1,1.1441498E3,3.5586853E2,2.098028E2,3.7879187E2,2.2022655E2,4.578491E0,3.3859192E2,7.2318085E2,0E0,0E0,0E0,0E0,0E0,0E0,0E0,0E0,0E0,0E0,0E0,0E0,0E0,0E0,0E0,0E0,0E0,0E0,0E0,0E0,0E0,0E0,0E0,0E0,0E0,0E0,0E0,0E0,0E0,0E0,0E0,0E0,0E0,0E0,0E0,0E0,0E0,0E0,0E0,0E0,0E0,0E0,0E0,0E0],"parents":[2147483647,0,0,1,1,2,2,3,3,4,4,6,6,7,7,8,8,9,9,10,10,11,11,12,12,13,13,14,14,15,15,16,16,17,17,19,19,20,20,21,21,22,22,23,23,24,24,25,25,26,26,27,27,28,28,29,29,30,30,31,31,32,32,33,33,34,34,35,35,36,36,37,37,38,38,39,39,40,40,41,41,42,42,43,43,44,44,45,45,46,46],"right_children":[2,4,6,8,10,-1,12,14,16,18,20,22,24,26,28,30,32,34,-1,36,38,40,42,44,46,48,50,52,54,56,58,60,62,64,66,68,70,72,74,76,78,80,82,84,86,88,90,-1,-1,-1,-1,-1,-1,-1,-1,-1,-1,-1,-1,-1,-1,-1,-1,-1,-1,-1,-1,-1,-1,-1,-1,-1,-1,-1,-1,-1,-1,-1,-1,-1,-1,-1,-1,-1,-1,-1,-1,-1,-1,-1,-1],"split_conditions":[2.722367E1,2.5400003E1,8.78872E0,2.2992416E1,2.286496E1,3.1499398E0,2.9582E1,2.1077835E1,2.829946E2,2.2725668E1,2.7757376E1,2.829946E2,2.9894499E1,8.78872E0,1.8129373E2,2.317575E1,2.9438837E2,2.060823E1,-5.327963E0,7.142488E1,2.3740334E1,2.8959085E1,7.0000005E-1,4E-1,3.6E0,2.9361668E0,9.255571E0,1.687398E1,2.2182001E1,1.8218275E1,1.2699311E2,2.4956999E1,6E-1,4.8000004E1,2.1413193E1,2.7E1,6.29E1,2.9700003E1,3.0900002E1,2.8511164E1,5.4409153E1,2.7642418E1,1.8345877E1,2E-1,1.0370071E2,1.5885582E2,7.3999996E0,7.2495234E-1,-3.514877E0,5.558379E0,1.1635044E-1,-2.5660198E0,-5.1779044E-1,-1.3916068E0,2.9377506E0,8.358832E0,-1.1176324E0,-8.915924E-3,1.3297403E0,8.057625E-1,-5.2520733E0,2.2405072E-1,-2.206009E0,-2.0061176E0,3.693245E-1,2.2931237E0,-1.6907531E-1,-2.4416544E-2,-7.423316E-1,5.284087E0,9.7331774E-1,-9.599339E-1,7.3520666E-1,4.45562E-1,-1.7195197E0,-9.919019E-1,1.0032395E0,-4.473478E0,-1.338084E0,-3.3809133E0,1.151144E0,3.7395325E0,-1.4800175E0,2.1980577E0,-3.4862137E-1,1.4492947E0,5.299887E0,9.217703E-1,-1.1140705E0,3.6425424E0,-5.9787613E-1],"split_indices":[0,1,2,0,2,0,0,0,3,2,2,3,0,2,3,0,3,2,0,3,0,0,1,1,1,0,2,2,0,2,3,0,1,1,2,1,1,1,1,0,3,0,2,1,3,3,1,0,0,0,0,0,0,0,0,0,0,0,0,0,0,0,0,0,0,0,0,0,0,0,0,0,0,0,0,0,0,0,0,0,0,0,0,0,0,0,0,0,0,0,0],"split_type":[0,0,0,0,0,0,0,0,0,0,0,0,0,0,0,0,0,0,0,0,0,0,0,0,0,0,0,0,0,0,0,0,0,0,0,0,0,0,0,0,0,0,0,0,0,0,0,0,0,0,0,0,0,0,0,0,0,0,0,0,0,0,0,0,0,0,0,0,0,0,0,0,0,0,0,0,0,0,0,0,0,0,0,0,0,0,0,0,0,0,0],"sum_hessian":[1.822E3,1.565E3,2.57E2,1.509E3,5.6E1,2E0,2.55E2,1.22E3,2.89E2,3.5E1,2.1E1,1.75E2,8E1,1.101E3,1.19E2,2.65E2,2.4E1,3.3E1,2E0,8E0,1.3E1,1.67E2,8E0,1.5E1,6.5E1,7E0,1.094E3,9.6E1,2.3E1,7E0,2.58E2,5E0,1.9E1,2.7E1,6E0,4E0,4E0,5E0,8E0,1.33E2,3.4E1,2E0,6E0,1.1E1,4E0,5.2E1,1.3E1,1E0,6E0,2E0,1.092E3,4.6E1,5E1,9E0,1.4E1,4E0,3E0,1.48E2,1.1E2,1E0,4E0,7E0,1.2E1,2.2E1,5E0,3E0,3E0,1E0,3E0,3E0,1E0,1E0,4E0,1E0,7E0,9.9E1,3.4E1,3E0,3.1E1,1E0,1E0,5E0,1E0,6E0,5E0,1E0,3E0,8E0,4.4E1,6E0,7E0],"tree_param":{"num_deleted":"0","num_feature":"4","num_nodes":"91","size_leaf_vector":"1"}},{"base_weights":[1.8301886E-2,6.0056293E-1,-3.0640757E-1,4.811966E-1,1.33920355E1,-6.5502305E0,-1.4211589E-1,1.12602256E-1,4.3009624E0,4.071934E-1,1.5527517E1,-4.2061563E0,-5.2288113E0,9.862398E0,-2.840237E-1,3.6775574E-1,-3.4177098E0,1.210364E1,6.8223363E-1,2.1102211E0,5.6535378E0,-6.547669E0,6.9377303E0,-8.61648E-1,1.638299E1,-6.484167E0,-1.2594368E-1,5.315701E-2,7.6148934E0,-4.9922724E0,5.299796E0,-6.832634E-1,7.4899387E0,-1.5180175E1,3.3820112E0,9.64843E-1,-1.1822857E1,9.308689E0,-3.819157E-1,1.229038E1,-1.3798264E1,9.71134E0,4.9064803E0,-1.3302635E1,9.388449E0,6.355506E0,-2.335523E-1,-6.072892E-2,1.7927119E0,1.4368464E0,7.4563313E0,-2.2261763E0,1.0970427E0,-1.9122453E0,1.8847363E0,-2.340477E0,-5.9874687E0,6.0608335E0,-4.6341243E-1,-5.465398E-1,1.6800768E0,-4.055458E0,1.2781758E0,3.8292733E-1,3.468191E0,6.08619E0,8.586918E-1,-4.7099557E0,-1.2140248E0,-9.605675E-1,5.0354824E0,-5.706812E0,-7.034077E-1,3.4138591E0,4.839325E-1,-3.8404305E0,3.822992E0,-2.7047925E0,-4.050712E-2],"categories":[],"categories_nodes":[],"categories_segments":[],"categories_sizes":[],"default_left":[0,0,0,0,0,0,0,0,0,0,0,0,0,0,0,0,0,0,0,0,0,0,0,0,0,0,0,0,0,0,0,0,0,0,0,0,0,0,0,0,0,0,0,0,0,0,0,0,0,0,0,0,0,0,0,0,0,0,0,0,0,0,0,0,0,0,0,0,0,0,0,0,0,0,0,0,0,0,0],"id":18,"left_children":[1,3,5,7,9,11,13,15,17,-1,19,21,-1,23,25,27,29,31,33,-1,-1,35,37,39,41,43,45,47,49,51,-1,53,-1,55,57,59,61,63,-1,65,67,-1,69,71,73,75,77,-1,-1,-1,-1,-1,-1,-1,-1,-1,-1,-1,-1,-1,-1,-1,-1,-1,-1,-1,-1,-1,-1,-1,-1,-1,-1,-1,-1,-1,-1,-1,-1],"loss_changes":[3.4485077E2,9.906029E2,1.2002905E3,9.1186346E2,1.331239E2,6.9173474E2,1.6241198E3,5.3451355E2,1.6011816E3,0E0,8.331787E0,7.238583E2,0E0,1.1329504E3,1.1037775E3,1.2604023E3,1.4160975E3,2.97762E3,1.7643384E3,0E0,0E0,8.832654E2,1.0918759E2,1.360585E3,1.676052E3,3.1552454E3,7.6869025E2,8.049976E2,1.00126025E3,8.2523804E2,0E0,4.364564E2,0E0,5.5825928E1,2.931699E3,1.3937491E2,4.120642E2,5.759665E1,0E0,2.4351373E2,1.0640137E1,0E0,7.2794836E2,1.2090012E3,1.2097565E2,2.3658052E3,9.359237E2,0E0,0E0,0E0,0E0,0E0,0E0,0E0,0E0,0E0,0E0,0E0,0E0,0E0,0E0,0E0,0E0,0E0,0E0,0E0,0E0,0E0,0E0,0E0,0E0,0E0,0E0,0E0,0E0,0E0,0E0,0E0,0E0],"parents":[2147483647,0,0,1,1,2,2,3,3,4,4,5,5,6,6,7,7,8,8,10,10,11,11,13,13,14,14,15,15,16,16,17,17,18,18,21,21,22,22,23,23,24,24,25,25,26,26,27,27,28,28,29,29,31,31,33,33,34,34,35,35,36,36,37,37,39,39,40,40,42,42,43,43,44,44,45,45,46,46],"right_children":[2,4,6,8,10,12,14,16,18,-1,20,22,-1,24,26,28,30,32,34,-1,-1,36,38,40,42,44,46,48,50,52,-1,54,-1,56,58,60,62,64,-1,66,68,-1,70,72,74,76,78,-1,-1,-1,-1,-1,-1,-1,-1,-1,-1,-1,-1,-1,-1,-1,-1,-1,-1,-1,-1,-1,-1,-1,-1,-1,-1,-1,-1,-1,-1,-1,-1],"split_conditions":[1.609969E1,1.6071491E1,1.6299694E1,3.1832928E2,1.0956998E1,2.0733472E2,1.6394829E1,2.5672934E2,3.363764E2,4.071934E-1,1E-1,1.6873447E2,-5.2288113E0,1.2699311E2,1.6595179E1,2.2974796E2,1.4300001E1,1.2245294E1,3.2590835E0,2.1102211E0,5.6535378E0,1.8029915E1,4.6E0,1.0797911E2,1.5408728E2,1.1E0,1.6700275E1,1.5941944E1,1.5827721E1,1.4869351E1,5.299796E0,1.7E0,7.4899387E0,2.9361668E0,7.4632506E0,8.1490295E1,3.1000001E0,1.61198E1,-3.819157E-1,1E-1,8.1E0,9.71134E0,2.3477835E1,9.515846E1,7.3999996E0,4.1823288E1,1.675064E1,-6.072892E-2,1.7927119E0,1.4368464E0,7.4563313E0,-2.2261763E0,1.0970427E0,-1.9122453E0,1.8847363E0,-2.340477E0,-5.9874687E0,6.0608335E0,-4.6341243E-1,-5.465398E-1,1.6800768E0,-4.055458E0,1.2781758E0,3.8292733E-1,3.468191E0,6.08619E0,8.586918E-1,-4.7099557E0,-1.2140248E0,-9.605675E-1,5.0354824E0,-5.706812E0,-7.034077E-1,3.4138591E0,4.839325E-1,-3.8404305E0,3.822992E0,-2.7047925E0,-4.050712E-2],"split_indices":[2,2,2,3,0,3,2,3,3,0,1,3,0,3,2,3,1,2,0,0,0,0,1,3,3,1,2,2,2,2,0,1,0,0,0,3,1,2,0,1,1,0,0,3,1,3,2,0,0,0,0,0,0,0,0,0,0,0,0,0,0,0,0,0,0,0,0,0,0,0,0,0,0,0,0,0,0,0,0],"split_type":[0,0,0,0,0,0,0,0,0,0,0,0,0,0,0,0,0,0,0,0,0,0,0,0,0,0,0,0,0,0,0,0,0,0,0,0,0,0,0,0,0,0,0,0,0,0,0,0,0,0,0,0,0,0,0,0,0,0,0,0,0,0,0,0,0,0,0,0,0,0,0,0,0,0,0,0,0,0,0],"sum_hessian":[1.822E3,6.52E2,1.17E3,6.47E2,5E0,2.9E1,1.141E3,5.91E2,5.6E1,1E0,4E0,2.5E1,4E0,1.5E1,1.126E3,5.52E2,3.9E1,1.7E1,3.9E1,2E0,2E0,2.1E1,4E0,6E0,9E0,2.7E1,1.099E3,5.3E2,2.2E1,3.7E1,2E0,9E0,8E0,5E0,3.4E1,9E0,1.2E1,3E0,1E0,3E0,3E0,3E0,6E0,1.9E1,8E0,1.7E1,1.082E3,5.09E2,2.1E1,2E1,2E0,2.9E1,8E0,5E0,4E0,3E0,2E0,7E0,2.7E1,6E0,3E0,1.1E1,1E0,1E0,2E0,1E0,2E0,2E0,1E0,4E0,2E0,1.2E1,7E0,6E0,2E0,4E0,1.3E1,1.1E1,1.071E3],"tree_param":{"num_deleted":"0","num_feature":"4","num_nodes":"79","size_leaf_vector":"1"}},{"base_weights":[3.1366512E-2,1.3908124E-1,-1.6636989E0,-2.6704652E-2,1.8689588E0,-1.3343012E1,-7.3136365E-1,1.1858834E-1,-2.1353464E0,2.9831266E0,-4.7490683E0,-4.3333306E0,-8.449574E-1,6.200625E0,-1.3660535E0,7.674079E-2,7.735712E0,1.3738669E0,-4.100047E0,-1.0636876E0,5.6427574E0,7.7346935E0,-7.127278E0,-6.2357726E0,4.291962E-1,3.3880207E-1,-6.7092407E-1,1.7761766E1,-6.7307835E0,-6.830696E0,2.6769736E0,-1.0799269E1,3.569478E-1,4.6979613E0,-7.474187E0,2.306101E1,3.8709447E0,2.8918204E0,3.0308533E-1,3.2298937E0,-8.719495E0,-1.6805528E0,-1.9010607E1,-1.15659075E1,